0.04672407010761693 0.03524372217016958 0.23914851982439703 -0.13512854409211442 -0.1055203149786062 -0.23472822462145593 -0.08808251916932584 -0.07936661063010551 0.4060048316983198 0.18038396132482165 1.165221265203213 -0.31705595041664425 -0.3577801499681792 -0.23252861131096944 -0.05974079627659767 0.015016388851397562 0.18421455425302286 0.03278074031295837 0.14226346555360894 -0.3849746963528929 0.0008416311028401193 0.08328064322357057 -0.02264909586488727 -0.23925438728054438 -0.07824465012005942 0.0035623001142379694 0.2771164457610874 0.41266031081716126 -0.05897334290399073 0.1324334877548977 -0.2013932641085437 -0.004426745594809084 0.34056717701246647 0.20190654957829457 0.3957900756711693 0.1732317214772522 0.07935889231905892 -0.365709429160185 -0.6798963956638053 0.22652383717727417 0.049825787270185995 -0.13339596503436513 0.33027595496356055 -0.24738653045503983 -0.03008306790910937 -0.06311933112943433 0.09678980166588572 -0.07715507477291415 0.001852126304088567 -0.03633829769168947 -0.03484519610136424 0.0036040512008487353 -0.06391966803966807 0.14284452703920889 -0.09151538211910104 -0.5723583435871364 0.2943093303019255 0.4137455884451741 -0.013235163201021105 -0.04966419154428237 0.083606610012774 0.28579012384029817 -0.09490410623355895 -0.17524132343555235 -0.17474789912688926 -0.238002171875081 -0.1263347105261295 0.12753424561740614 0.21441095672468316 -0.16437730186264432 -0.058859467339419394 0.08405421150289406 -0.09913953539568686 0.04876007318004414 -0.053834600810779246 -0.17669911050270432 -0.25206187227249277 -0.2593143516509994 0.05528311971272691 0.0035178939289843983 -0.06869849227716873 -0.2793174193873303 -0.012925734759642754 -0.05729104614182266 -0.15591545164446474 -0.01125564045623675 -0.010679319221142585 -0.21420096821078566 -0.09212160425117512 0.3541779856412332 0.005938537660325423 -0.21563151230974578 -0.18160975710418342 -0.02767625736542727 0.027660155189436323 -0.11193121387673918 0.0910378883384981 0.12998846145864623 -0.5435994249352969 -0.19977516614114338 0.02580995957717706 0.09197200946597454 -0.21517956227779098 -0.0020263541358512094 -0.1214031161938997 -0.17448436665272404 0.26281752949145926 0.1495570057056681 0.0008317350746524736 0.13375306200664633 -0.42624613855022503 -0.2212181420639414 -0.04944059637348203 0.23271719072308217 0.05049334238536311 -0.08676390424511571 0.09737836600428906 0.161546299432986 -0.0976124913956602 -0.10292367641359743 0.15452699774967496 -0.04579150881518757 0.04833301278270229 -0.09276102276580496 -0.03877616577970513 0.1997440739691374 0.12840943481486405 -0.43060821472610633 0.09187655296938395 0.0081277198651905 0.21424505463897284 0.05209013446681455 0.12933672884523148 0.32863423849376266 -0.15966825260043827 0.015014495737138658 0.17510347626803896 -0.09579741145355143 -0.040490839082767995 -0.11283817884569354 0.18502742404347883 -0.3309700333482306 0.23285309983942937 0.11162323248586653 -0.13434320580128337 0.24313309596040503 0.09905534846460323 0.15479431343309502 -0.15155155702693804 -0.3238791341644489 -0.015274988303114382 0.3817264726793246 0.40670588964403337 0.05922267461328088 0.14338755892857302 0.4514024487348894 -0.06295312378308361 0.282640507506774 0.6219118929495919 -0.8731147222504252 -0.12643165105533027 -0.3781914347464821 -0.11534583692669072 -0.21299906775698818 -0.34578377006828287 0.044520938573393634 -0.13770824461614825 0.04280996566546868 -0.11613610854782655 -0.10707717420853843 0.34404110452972136 0.04228924045887278 -0.4082712339515637 -0.10221087550292428 -0.29664178634982985 -0.5171192947364608 -0.3292373078726912 0.23596589344490287 0.04288402201754135 0.926981945742484 0.2888366674950848 0.20462346919571361 0.26001977052518566 -0.5190641044129003 -0.1808608447146629 0.21861155574644203 0.0358013624247688 -0.19628063624398726 0.15087767531311866 -0.06601785705145281 -0.05970267136518509 0.10260999046169687 -0.33760793551178875 -0.15742989328206972 -0.2910754341913114 0.01388267800174126 -0.036042326288419135 -0.010498846564973819 0.030656974890554144 0.016342665635610838 -0.35043738452374185 -0.12522888922944228 0.2765433722097754 0.0466998107766209 0.44752519205512525 0.04096036795853632 -0.00037091069065583944 -0.09940523441538676 -0.3319968988736136 -0.19309818138996515 0.2734069908209273 0.021929639171393473 0.22396298625761912 -0.2514506468752775 -0.13070149603787737 0.14864031702923958 -0.1239146360095581 0.19643221243046718 -0.07424629260611669 -0.1457840120479209 0.24389628999529317 -0.35386538160936404 -0.02370628135301539 0.38132810271230966 -0.12665837865541152 0.17234609751149593 0.22438120073317458 0.14839381641849803 -0.08836335551616155 0.027358057913985153 0.09244477628456692 -0.36972426333130975 -0.05578986993827486 0.19756328829583633 -0.07849757891313223 -0.6946258786019426 0.19286371232957034 0.08394355091533853 0.005506343930378828 0.09860886177155583 0.448739051878677 -0.028883983622367326 -0.06771712199987001 0.13412671341510343 -0.026478123779219424 0.5540700526445854 0.05522714473562946 -0.43428392887390144 -0.025275677397332368 -0.33559247628349054 -0.05225873389579212 0.05469017338411171 -0.3298968791229726 0.1730729624464175 0.4946875682261822 -0.19789593223707094 -0.13359044156421457 0.16480796596672345 0.2975585092516056 0.12956334978631684 -0.15001829386114568 -0.40082035815465955 0.0997367157287084 -0.01588357709822771 -0.07579155859982639 -0.015872272047367294 0.23574115202319967 0.17237933713108533 0.5176260412799706 -0.09749897762388611 -0.04113666378571178 0.0324657071507747 -0.21388257506991715 0.006223869318656165 -0.1360919743385076 -0.06662588458773205 0.16404551343430399 0.2945487627305096 -0.09139855784443271 -0.31473956515254414 -0.21085686700017442 0.29553756900523825 -0.07089328745630873 0.14403175644584143 0.010572372972036765 -0.07738080332381093 -0.09216805647874508 -0.18514817198615147 0.2545265142344524 0.08852739388592115 0.043529584151558685 -0.20643197146962902 -0.11537139550150274 -0.0006583626048743826 0.31535446424886243 0.005158085252699524 0.0275512879445668 0.20271509898329126 -0.059007483359684525 0.3216285654374398 0.20957443757313585 -0.2523093837388603 -0.03816735310742726 -0.08322295101003727 0.06865976906927428 0.3872736448374453 0.25587004299928573 -0.7021686993443128 0.008632634684412801 -0.2768316517612926 -0.11579512197535101 -0.1504542097152395 -0.12545595615034158 0.019236188073992112 0.15372943995778848 0.10147595284376408 0.02518080865102275 -0.013966670399542873 0.14442688582734697 0.11786724366096592 -0.16086007637062485 -0.03293914536698577 -0.4125828440696237 0.1713060438156081 0.1564477239373638 -0.09501069529032186 0.311470715007914 0.11556430564922611 -0.39599332714155805 -0.07095778815112898 -0.2281279938956483 0.36903060911018754 -0.7459836383479413 0.05947211381744584 -0.08597034010091284 0.00084843016392153 0.320737238069062 -0.05738618133479768 0.11843982860652386 -0.5375866601874713 0.07634028277634572 0.2278166473491003 0.004583394404069154 -0.11638193322568605 -0.2696388083944048 0.15006473512221097 -0.016751120200523044 -0.18110925480597495 0.07521582971764361 0.06492477439332087 -0.20415955907704184 0.850982233834869 0.16841160729312246 0.7615247889181195 -0.08948487496166212 0.22060837076151277 -0.09939579875574334 0.16346951027561865 -0.05738977257059714 0.21728829482852938 0.04845358089187159 0.08107347685323733 0.22067280110711177 -0.11186265219480764 0.2227992785971723 0.08912156702031734 -0.12443567707913615 0.1086810361074498 -0.20636863086928112 -0.6995764336459435 -0.08041789140541794 -0.5862393230357804 0.033560060089502186 0.1280099109350587 0.06113955112003629 0.19591030257548828 0.010620633554958325 0.179980565621442 0.06006100018781342 0.19001027558453873 0.012885976186948752 0.13143579084988227 0.35654854716418155 0.017210715929494715 -0.6151823870655051 -0.0187052927442354 -0.10863407375750787 -0.20179549010681536 -0.05102813027943099 -0.33611934911150876 -0.3460980733891886 -0.25601872366238704 0.2693514778723504 0.2976400133458668 -0.22241627614635948 0.17164159836888845 -0.2581877973392591 0.35699572944949576 0.08881477879049444 -0.07433436088989805 -0.11208636591755515 0.015920435499058205 0.3567451347663722 0.046764193438875695 0.08803146253998548 -0.0784873462519164 -0.13863735010082354 -0.06281018462799413 0.09073812026063104 0.04380346132884613 0.5294300671684555 0.17890330331119095 0.1753435547972003 0.33249486370437653 0.5729234020486598 0.0431309174222967 0.1410662939212866 -0.20654539808623432 0.24562253519723184 -0.23089491638513743 0.3529009933471729 0.008603753558276422 0.06797319328987941 -0.12458725078606833 0.57071902767832 0.07279401090109655 -0.007999080924641551 -0.4016668197274127 0.006320903931282068 -0.052211117681107526 -0.12124947054058664 -0.47184034995067564 -0.12302178211631534 -0.02093493290289247 0.07615495478372991 -0.2714164939488083 0.0355461962104173 -0.10427067424970089 0.15648539975827386 0.07379304539358036 -0.12275586508025217 -0.3309090427154342 0.11184508410102652 -0.10121793554039346 0.18364041181430152 0.055409994328271935 -0.10594042636796758 0.16298633528746762 0.02266765148456586 0.20327375387061333 0.02889732446174974 0.10159461978391143 0.0805228369142064 -0.15107412704918582 0.033501988945074404 0.18371441179154244 0.17937185582737647 -0.046016859964481134 -0.07133529649080603 0.026372189406158122 -0.0016282871145244877 -0.0503792504335544 0.21398268326297717 0.28847929312287973 -0.09347271218299348 0.12420118200932896 0.11481360220618664 -0.06525977840011647 0.08801959594659993 -0.10041726431107026 0.2001204596696237 0.2209298428485843 -0.1187785205208389 0.2515993403042842 0.11707138015527851 -0.044590338264505223 0.047168482169135335 0.01870942257250898 0.011742702691298809 0.06505898155410679 0.19870461041664939 -0.06946688013212785 0.08308033268156718 -0.08882395396735954 -0.037442617639547586 0.29185624509509134 0.053010014685318435 0.10666604909149545 0.16942669162690624 -0.011026825160394514 0.14974460809779006 0.02313143706740025 0.17563473635843227 -0.12257863289520914 0.029987273999131824 0.07501792083803582 -0.08737559177334063 -0.054138868638117295 0.10825979657773968 0.10885924627360063 0.06612159163467968 0.033899667112358485 -0.14779651955536077 -0.035809036864629815 -0.0889676528879218 -0.241752693267041 -0.2555840377547375 0.22125352432325981 -0.17979675419357957 0.31569871151627915 -0.31746764055669197 -0.09652919945565196
0.11732005264119873 -0.144105560084387 0.31942566846150067 0.17395379547912668 0.08150876634197958 0.22193569297064078 0.03179792145453981 0.07884500529758949 -0.1276650177802569 0.03027121837396266 0.35155988728304793 0.005606674233131802 -0.24946316597731458 -0.02531076049435106 -0.3560880817944736 0.27497739754340117 -0.04572052129312536 0.016137129105550842 0.13357768318967386 0.33409694294096115 -0.011746144053939315 -0.09353739149362954 -0.05297787379310274 0.24319686299023613 0.052773044994006243 0.2568122955224564 -0.08423527878290013 0.16984829232039028 0.19101580121250955 0.3127958766158452 0.23388130546649222 -0.22308451773407495 -0.2525751270379016 -0.21077300490079848 0.01879943623527615 -0.08201241035101196 0.10547664857718324 0.09673850622785744 0.29625448171842256 0.19846851701371526 -0.27414501456247053 -0.19713586305901315 -0.0066321400908687655 0.11552809852541826 0.13165293259200436 0.20580861364319905 -0.3327270655734083 0.002114903498100074 0.265018330524587 0.30848730832636934 0.23547289864339985 -0.36086327008310515 0.16766949321946836 -0.2123204626366322 -0.33670254842562986 0.2535938051996753 0.08286473900510874 0.137147285800521 -0.13485266159218753 -0.09453344754152146 0.31686197989974096 -0.3332124764256182 -0.19402854859611576 -0.05576366301323197
-0.28744615799836765 -0.11440113375866981 -0.19286184647242455 0.028847587687583866 0.048622022208367956 0.06286268654703628 0.11890805696764452 -0.07883800895407148 0.0057231634089828275 0.32791268890548697 0.06761215744076592 0.024788624754744082 -0.09399608351220483 -0.06678510537462215 0.14835435982831205 -0.10182275748753027 -0.09974028633346849 -0.04974888709608306 -0.09069618604062532 -0.017995810217097334 0.016009777924684318 0.12389306568885709 0.010393539138591602 0.06237140344478618 0.08573487419631509 -0.20444731910856676 -0.12726084651075598 0.08410094004735096 0.08584325136599874 0.05964242989392064 -0.18370636899008877 0.016774261801458912 -0.08428040165236578 0.027957393519531103 0.21432512055323594 0.06211266461930725 -0.029303298247117596 -0.04336098567235836 0.03338407302828665 -0.12857434186040964 0.06639461290738179 0.15990920295281397 -0.04334254536828929 0.07387120470520574 -0.1508418337758527 -0.08961826914367557 0.14054172840637313 -0.005276324438028292 0.044401278890765374 -0.014325197060818346 0.13730314176092365 -0.03326425346781151 -0.0545552795399376 -0.04156336682743379 0.0548003913590443 0.02350616652674675 0.048767940411199875 -0.024317428008326276 0.3147686689596484 0.20259087947535828 -0.15920236104238297 -0.03596285503488043 0.049191510428046314 -0.27121949740115736 -0.10549918603769018 0.3374924997755767 0.06732570473161371 -0.22506554770950415 -0.21569091277012836 -0.10807892487870256 -0.11070405129619693 0.13841250637811528 -0.05890633774990175 -0.057021614739779174 0.0918483294039857 -0.022390985234527892 -0.22213806877161194 -0.02359687341000709 0.1415498582514284 0.04215002593401777 -0.11110537006870003 0.22946267221715258 0.11601447130193751 0.0105265729310547 -0.029759040032443698 0.1346123447908855 0.09007572089600617 0.15562767590807924 -0.002064618460112775 0.15709057062125636 0.2285577007819133 0.21361093943205947 0.255203578085445 0.1405454098581052 -0.1557455893016291 -0.20353853824768126 0.0967548101700427 -0.11826006836763427 0.021884395955576025 0.1175494987320915 0.26340824908618576 -0.013413333372022166 -0.04421978121824577 -0.05243523680041847 -0.23363986673286713 0.08715227727284217 0.17574256872201854 0.03126261765244569 -0.027371476491131495 0.05543241963297063 -0.14551767515583885 -0.04845365527804149 -0.01717832919261797 -0.047874977268544026 -0.03885648744212434 -0.008627657394358427 -0.01983380857974714 -0.11352397742751648 -0.05483050038632759 0.08285793816266 0.02421648739567345 0.20371961017234977 0.089326218664359 -0.04368661481550035 0.20831371648153785 -0.16414612017167968 -0.23193732724068422 0.03092495755288428 -0.2637721056356325 0.020359241986859913 -0.17644717309683047 0.08051248719102377 -0.01231807551794369 -0.05535418461591823 0.1562153600868608 0.1477311410254744 -0.1264517157583916 0.07681320400753418 0.193840912137063 0.08979878937595485 -0.09371466973934614 -0.10094847153921206 -0.005439211941521211 -0.11844276750308129 0.049483842746011183 0.006806427673509467 -0.1039889000173502 0.13734258600430377 -0.16730549969629172 -0.03735501714743082 -0.0421928486323787 -0.012377385661703686 0.04180490570941517 -0.23854021851308996 -0.05461260038418538 0.16756830851097484 -0.1606513612415506 0.018116004801345634 0.044135901428004914 0.0410588183705475 0.03412871359998407 -0.015603612146091237 -0.04571531290984842 -0.034682773847188555 0.03380341627218832 0.01920943671070649 -0.16991956683891984 -0.11440956355215143 -0.043629250187214266 0.030752251352643888 -0.041784428850414536 -0.05334410697437623 -0.06790066340315641 0.1051688784187642 -0.012605223353921098 -0.09970433191094628 0.07111653466690655 0.18933676693059617 0.022092818359360996 0.08837724066787331 -0.06622065883997175 -0.006004969836745077 0.15189637017029609 0.07392694225824302 -0.00921041257434613 0.12764189342559687 0.08479832189828183 0.09085523988015866 -0.14996156927401771 -0.10571020595103081 0.1726055390470511 -0.1360596176316567 -0.1595875581726479 -0.19714269958651792 -0.004955326387169907 0.01638781842297323 0.052174320304882164 1.4623720526510393e-06 0.06724560961125739 -0.01084150288993295 0.0037845518080700897 -0.2144078658713965 -0.02761158519950417 -0.07730241911460278 0.021930477453409425 -0.17970289402836295 0.11569071391717113 -0.14289191928862957 0.053693231689848686 0.08883625205668362 0.10643205330020394 0.15583467599814038 -0.10651242517457933 -0.07767247935447517 0.12588645647883837 0.030614231829809352 0.02029703604876244 -0.03339564326437417 -0.2421897969182684 0.05213887372040767 0.03595550306299958 0.08515211612334236 -0.08071714688689297 0.05722387210670259 0.12601676142108012 -0.034020825651629075 -0.08026933476618346 -0.20205694173912014 -0.011998588034925827 -0.12089402132371543 0.15859422343628557 -0.20595232443923672 -0.0024412913366257494 0.12207031481180447 -0.042076719519884495 0.11543244840662542 -0.029127255619669962 0.055975002917307747 0.05072570772380274 -0.0357944336709324 -0.15763411218099257 -0.17202415045848998 -0.008584168878671486 0.07410973752308238 0.10237751769799824 0.042030056821460555 0.06595776032456198 0.008865751025801208 0.07938263752337532 -0.11551449600257711 0.14876995595677178 0.029771026399076195 0.16891437310259588 0.15328847658491576 0.03556063427963079 0.09399654129656813 0.1854101857127131 0.019425319630926335 -0.08315112434596358 0.0013056345562971936 -0.017418837248285888 -0.05272162260305998 0.021750228087817475 0.005805324576152363 0.006812014736183212 -0.055390602230286766 0.04514958923282746 -0.1694476174843018 -0.0384337891549568 0.03608506909446582 0.08163726546778172 0.018736164062850946 -0.050527314793138586 0.013608015704257287 -0.1123460895525187 -0.10800984810968388 -0.13818885015669558 0.0756215386162934 -0.023989276482218512 0.14319149773225623 0.15878028547587283 0.15016398255597765 0.029299068401136195 -0.08090308959983697 0.1746208668630194 0.0670461413098299 0.15209897434105527 0.14276918722121296 -0.021240283871162717 -0.15968081000599205 -0.086106679533217 -0.022145577671275726 -0.02522082342409675 -0.012131510688940113 0.059775978446109934 -0.023538820668423117 0.0016621646970715997 -0.10973264796200902 0.010588049010167468 0.06452909528850319 -0.03669180001672166 0.04655999597873738 -0.03074719817224563 0.11864151643091607 -0.05015213329853705 -0.04356182779199617 0.06414297591004536 0.05815690031695468 -0.12255573737888274 -0.0165020433713416 0.06894547700389814 0.0021588375372991204 0.009917212380230429 -0.011144996566143631 -0.023662732635748352 0.016303786051170867 0.03126026856676158 0.0973032669450852 0.010993358184094406 0.14139781995994516 -0.3727907328386841 0.15379699762929097 0.09613971638996625 -0.14252722907343054 0.0290149445714948 -0.23576790724769736 0.18800856796230755 -0.004245013173161176 -0.11415524033028136 0.0661669576623613 0.003165077776334479 0.16271565953130693 -0.00802191923890779 -0.014573923134478023 0.36215603785786743 -0.14285419509956906 0.03844520386932746 0.044832310796262924 -0.1622809923135816 0.0319210197440506 -0.14129675290983384 0.20337263190590957 -0.15003476964880028 -0.10389172687245792 0.32816778339581204 -0.008027388660530354 -0.07283373586573506 0.1006280741845929 -0.021158115569354645 -0.028873440555824068 -0.040465727531835784 0.007834283984451663 -0.03928055195782195 0.2070382323425015 0.2825155101939356 0.17818929325777494 -0.013479630126510449 -0.0520529576112902 0.07361099343916895 -0.09033277748222367 -0.0010087667397529992 0.07587931945113793 0.06857885992556066 0.09413554310324808 0.04256628156820573 0.033622741989420064 -0.03326311314142736 0.08473501024990526 -0.16231507782836743 0.15028884293322753 0.35562322610214453 -0.21394474329811233 -0.2503471459783764 0.10332242004462404 -0.0854212055382432 -0.3287000944112778 0.12011026512820908 -0.14398584422174854 0.2386528656933439 -0.12074908428763126 -0.13593338521200715 -0.18774278074229642 0.02270352128923553 0.13469398263264934 0.10851205164223114 -0.08204098700102211 0.05121618287880884 -0.0009175305942814285 0.07376382298696793 -0.0671550720532603 -0.00927182853342498 0.05558903439937291 0.037972741563157345 0.0630052078603475 0.09064065101046143 0.0713406819943293 -0.08874643304106221 0.02535737328438458 0.04394109188739942 0.21887977188101293 -0.16525154264280348 0.04584663688289819 0.09757742256169698 -0.07056437636304502 0.12364043711136215 -0.00016381981308219069 0.046446955708353777 -0.0036525110452906924 0.1485090559377779 0.03423841865788328 -0.08104932961768584 0.06048071115683509 -0.10322690645837035 -0.03693076877968189 -0.17044568126121282 -0.01181226287081464 -0.03393617116499068 -0.07446310129509498 0.005480224821376929 -0.015398213128438603 0.19577405555950103 -0.05910695730332045 0.0024443491616649563 0.019356950329245597 -0.06698803111354819 -0.07426709381484135 0.04462668377749457 0.19914086509210743 -0.050747105249127615 -0.07685610790621543 0.17842928577222733 0.055885608278451744 -0.060666394285390106 -0.13959529027551282 0.07823951209293296 0.23499554548640325 0.012631503766102588 -0.06758171246122621 0.041157375666558735 -0.10049910678671856 0.15949735161234377 0.06596473292224014 0.01462061415102858 0.16987255020862965 0.15342025930207306 0.06038070846067043 -0.02377184179051352 0.11241455477476085 -0.02820038780399331 -0.04583767849136975 0.05141666225521666 -0.2303076902931946 -0.19598299111507017 0.06662671066190656 -0.04462884918955561 0.040335333055360384 -0.1931035428668496 -0.1000392201466333 -0.04288719211129481 -0.05778560347052924 0.009559798763191978 0.010535643800229727 0.2721547857488405 0.1109180014543525 0.08501500683198612 -0.11586798683401962 -0.0506218883221825 -0.042513630473038175 0.12236180905605953 -0.10761051490579174 0.025855876512595122 0.11593916708537219 0.13427985629714437 -0.03334211349231803 -0.1618075120359251 -0.03590908461101572 0.012297547791964333 0.10983693870025146 0.019329740628469108 -0.10405479351266583 0.03235401664906075 -0.0029068943166234247 -0.1559692362352873 -0.06953396047195698 -0.061703412404228754 0.052959134766078476 -0.07790477606276108 -0.2844591521880554 0.01518861512246608 0.20757298190251672 0.0012114547854747844 0.1091140533246595 -0.025484222985294038 -0.04805071638675738 0.007176840554172894 0.0915684153775924 -0.0377959906931081 -0.21839549356873886 -0.09141570039993707 0.2949814386986826 0.05740875572832713 -0.07181508518245006 0.1176620288468528 -0.31713552972904474 -0.007848094289531272 0.1385182589570489 0.07834860891798777 -0.08178288166141504 0.10930087817668331 -0.014814909521184295 0.04754359554217599 -0.14180816876582564 -0.11776899372909923 0.09998026052600438 0.06674107186189529 0.1932635987447871 0.18218846896649124 0.07756949029123951 0.04854425660291437 -0.03861858427321577 0.1309763003040402 -0.15779302129717895 0.05813052320804661 -0.13279715841097506 -0.034747087098848925 -0.11751025858463678 -0.4240169995936463 0.12297088293265254 -0.195438597852692 -0.09829622390975502 -0.05175628121068196 0.035684504018627244 -0.015845023723431925 -0.1128640250367856 -0.1637662635762685 -0.07349995847467984 0.15144387743615506 -0.0724523650703507 -0.017210596860201644 0.004469795445336333 -0.0383826987761427 -0.20100552443930597 0.05476617824684742 -0.011590172998782304 0.18202083183933754 0.4583669213092088 0.13088974415377366 0.11470949987126819 -0.119947210402828 -0.004931555521414702 -0.1887525563150771 0.20193248396827904 -0.1907955264102192 0.17121681050339563 0.20376883776576213 0.27424023343695025 0.10001335959469093 0.04789559833030536 -0.2909564081058482 -0.12073674859965376 -0.060873698237268375 0.08439460377837035 0.02654646090197743 -0.044177612796335475 -0.2220955752156836 -0.0642841076034118 0.14489802451067454 -0.03410586483340519 -0.20271645265353444 0.07175221565217359 0.265230214081534 0.3728886785393299 -0.17455033441618234 0.03194030027974853 0.07691172015323355 -0.12170439104848911 -0.11891865705014615 -0.1659534097727069 0.07111986368001008 -0.03998510156336558 -0.09972174347784969 0.0527218498059948 -0.06510965098793411 0.18755083086051286 -0.11232154283369 0.16617453981202213 -0.015513192069958985 0.046182183729013365 -0.11084514445635792 0.06986319469508631 -0.09239670317065644 0.08295582143165887 -0.06352731623968773 -0.03385418244202123 -0.04920858845504112 0.10391065304725262 0.022469022083598605 -0.20155249036723075 -0.12111430070088777 -0.014388132798158506 -0.0007205645117040902 -0.11146178979860559 0.12475720142206141 -0.056769000968251174 -0.004673167317472691 -0.08768189354059687 0.038285320345831444 -0.12280202710025893 -0.09710550748633368 -0.029569922691678782 -0.03488431332710608 0.17577880643669935 0.024213333543423036 0.14707293010937808 0.14070546605748835 0.014375740154044907 -0.016241320514454455 0.048922094994193775 0.17166024601270993 -0.15047333632564097 -0.07388033795945498 0.02733310353110278 -0.08427615350375862 -0.005801002349783269 -0.05915945824923421 0.2861437739635424 0.01627802254125825 -0.036460812904787906 -0.055784267749453414 -0.1427234600024854 -0.1539202774538669 0.14431387853638883 0.013594901682685265 0.03919715968565581 -0.07286893874791403 0.03858926033632731 -0.1290905215368488 -0.12860741343750542 -0.0794381811594352 -0.01438973189678613 -0.08493596838283458 -0.004013136178421687 0.20041501995988711 -0.13429794062751918 -0.07033456082737832 -0.04337264941161285 -0.10055309785919134 0.23488686502414852 0.27849692250857655 0.47781951388683813 0.06230273673987476 0.46895282143287514 0.02421174248318913 -0.07929926038555885 0.18152316914039757 0.20519771896978128 0.028464863510764053 -0.17433550997239114 -0.12405406837732937 0.31322328505283326 -0.433172051237149 -0.09876051567142181 -0.06348593401869493 -0.015361118458219579 -0.041600358930581255 -0.24980224216019248 -0.012707923217700555 -0.129404647545358 -0.3263980849863132 -0.004011797801042227 -0.01572663136832914 -0.14214480913215777 0.43521782146309995 0.13393983895502942 0.038162418972701485 -0.09310149357913576 -0.14588838356029407 0.0324418002420105 -0.22607425566392014 0.2838113044234181 -0.1810208856970391 0.1261566835831792 -0.23978964123946286 -0.10922570814941729 -0.08686880595864435 0.0844801561431435 -0.13377451900434986 -0.03501763727497679 -0.2028647987284092 0.1636565244885734 -0.010242715212129586 0.35204022067688434 0.1416305058363544 -0.10574292695925352 0.04508482259377633 0.2573142434484444 -0.08754198385620664 0.45598792101207064 0.033985478700612144 0.16115542146102999 -0.028034710534979284 -0.08220785687355449 0.12212018624764802 -0.2566764296455186 0.26689596724162523 -0.1292425323700066 -0.03653891750993805 -0.14724033140802678 0.04699388729944938 0.08653818397471201 0.0333720186345028 -0.17252217245077084 0.055089233728370594 -0.10654151062204728 -0.060864278654069785 -0.07176690083688801 0.08025421503496359 -0.06903838094981106 -0.2127836534068776 -0.02054907876389425 -0.1340306787138901 0.19125938119906385 -0.02657780583262521 -0.18003868352912847 0.0888345009320869 -0.1212240388492201 0.31487855583061247 -0.10117002101084865 -0.1545916263508064 0.02061038728815974 0.15760857881443963 0.027164638279625564 -0.034162320522655484 -0.022343305908051152 -0.2939420774917909 0.0821364805109963 -0.24837733226314757 0.13622232248640306 0.04253139689814232 0.055168880139091755 0.13924342090507136 0.06134353767390101 0.030222754506180876 -0.001212009888465412 0.1376900933292225 0.12945170313256685 -0.05087035305553692 -0.1752171292032557 -0.14518196617509463 -0.12861837069990223 0.21403118252637143 0.0232972887654987 0.15749242217837467 0.0030302612403577964 0.14235910774296187 -0.023680960378799864 -0.09785856768187355 -0.17516213814331832 0.02913379676999326 0.044503351683482906 -0.04300533852853573 0.2690655886517904 0.19894372407489663 0.014639913879519927 0.15246331218783218 -0.02221802119056947 -0.12601163227370948 -0.03089995681455998 0.060166400566676305 -0.16724297153031017 0.16886221218961198 0.01632800317349189 -0.22682667070528142 -0.10681665592874005 -0.07662351891781621 -0.17059364693763543 0.09664791690610615 -0.18827959078821518 0.012103836885719171 -0.1932151526641225 -0.09657078175148016 0.03067639165918908 -0.09950049298415538 0.11008360701609216 0.132894286645455 -0.049327220128633956 0.013267745330671222 0.13241628504716785 0.2611566514961152 0.36646308712230236 -0.14721292811973655 -0.1873252762305874 -0.0034573967197188906 0.014805504003713287 -0.12682960086230913 0.1204641534783635 0.049493897014177904 0.1028691476171264 -0.1481366011536351 0.22321881427173604 -0.057658144723329696 -0.20229176505629737 -0.016714154671374538 -0.041593047170343025 -0.09177015209556598 0.10161930009445555 -0.15260678948874157 -0.28127961521670625 0.07401535058001421 -0.3131557171717619 -0.21118036651614344 0.04561311786732472 0.27437722398483355 -0.025181658641471552 0.3707138922153677 -0.27938613455555894 0.35428466475060166 -0.12674089953910816 -0.03075050470771112 -0.0481734462003293 0.19364225154380488 -0.009779684947390472 -0.07973442481041958 0.00813566797068317 0.155146368256423 -0.09879317503288476 0.04344421039665257 -0.13960655375081024 0.21868441120292542 -0.10451930248665553 -0.1322454656322056 -0.11960529226355186 -0.03718528600338308 -0.08676674402514262 -0.16624172419360933 -0.03165903485755972 -0.009109429864016638 -0.013415882382740246 0.09460060457120245 0.13806971675797028 0.13778468715395892 -0.011723871807163434 0.021684518967348833 0.08540779603453152 -0.02479476553375422 -0.07382218716775059 -0.11439018191009423 -0.04705511679798329 -0.11866363623996425 -0.08342010311416717 0.07231853378351015 0.09898379538193396 -0.10447006673610902 0.2606592823010803 0.19275332222649225 0.05067718214828364 -0.06619258446042256 -0.09490352575776093 0.1826136128451534 -0.13202936437662188 -0.03941823144199307 -0.027211683194375627 -0.2213836286820838 0.09527986469087278 -0.13494138986198362 0.07870275947161341 -0.15052262049802723 -0.21390993656575716 -0.1307352756705548 -0.0975676637608633 0.06554871018356787 0.04605922333368851 -0.06971447501000157 -0.11946546982444126 -0.03923563260108879 -0.04175436227053256 0.11376573226445533 -0.10464809069553412 0.1781020774254105 -0.09191511207974308 -0.184340980150182 0.17363989505226696 -0.06779571185482279 -0.23131169986559086 0.04422617414659441 -0.01522544241113206 0.009318571250557439 0.056636215055877785 0.01653090941111022 -0.06951546829188016 -0.011762346352951493 0.006325889439433954 0.022254547834964757 0.116367906503531 -0.07489626945668112 0.136897592706178 -0.21806074664657257 0.1423857783862633 0.2639700008040246 -0.19375279777492416 -0.04190597815857121 -0.24159285724247662 0.005693217833995479 -0.2286444659866154 -0.014273496015550833 -0.198970891053585 0.04145592890678875 -0.17512199125594735 0.0028947743343795216 0.08150820140486496 -0.0761957826807309 -0.05679867021120308 0.005121082485651241 -0.28276692557661753 -0.12959855894588607 0.19398603710218446 0.15757108804654882 0.21033371934569844 -0.40180105947257155 -0.2776064829093284 -0.03861598476631499 0.2027890014780274 -0.299297382057904 0.0893883348211301 0.19733302885493206 -0.017419394122173124 0.05541737401006996 -0.12094388179446526 0.146098201662369 -0.02986774688606996 -0.28008265981792024 0.20407386669893612 0.07999948072724772 0.06441215838826668 -0.18470240327499055 0.10393265854224798 0.015614450135740728 0.004163568521010558 0.10768872949828184 0.02992058318123927 -0.00567304858524238 -0.012657774832029782 0.31221068854367245 -0.07013244619204018 0.106847861923493 -0.17259315209766593 -0.006224615165699084 0.0050541498957928565 -0.028905062982501187 0.031919159006694287 -0.13644855641700304 -0.1441600365880946 -0.09402175504377719 -0.23882019057077314 -0.013109973032280356 0.0696318235314164 -0.02694203424244131 0.1893073400735115 -0.15885098795364652 -0.06663940612481152 -0.08622807174283066 0.11371381185144722 -0.05840513755611267 0.048644855114432395 -0.06165288296031884 -0.17482739679399173 -0.12667681380450174 0.07001618504881083 -0.13882464969140965 -0.010747704455147167 -0.10862696569836136 0.005437213839775752 -0.1051360392661695 0.04102615521863695 0.08897261443112107 -0.0013016975312427621 -0.026321348234536548 -0.18708408761790918 0.16803048235709478 -0.010984302681288152 -0.07632617217831825 -0.05998040518003952 0.049502951396372195 -0.18201284678523652 0.12467700841999625 -0.07778391623607842 0.23593082608078167 -0.0014525103902770947 0.13206597617070778 0.18826784088506623 -0.19006135271883173 -0.14746460881887188 -0.18677589834034503 -0.030005353774344334 0.12748577246706738 0.2548119800121861 -0.10624939690513659 -0.17778478910066475 -0.06599014574763361 -0.2675250553433926 -0.12337034469674435 0.372648382344722 -0.10388068445353021 -0.06641593834209171 0.19776830405473142 0.10390937434341037 -0.2108903226337874 -0.08643572347425647 0.18405159270865168 0.0238823509828479 -0.21030891035530086 0.08660590351734723 -0.1441397205878481 0.04282316533699989 -0.23364635350801685 -0.019081296060416298 0.09925215266287844 -0.04308337154874255 -0.1805341061578259 -0.44776459565515697 0.012958696417888146 -0.2656413981323657 0.08459713346003828 -0.15445917118989658 0.0004476303033058576 -0.029342312895215574 0.08986398539138535 -0.004673004432159137 0.054924291111950956 -0.008752901434418824 -0.0627713950355374 0.04553380977017818 -0.1103196026654811 0.10984659734315882 -0.15596315445393136 0.04618303724681703 0.042167780464182875 -0.0028211433372664968 0.12800255121667029 0.10058139732218792 0.07712027545152218 0.13434976384503794 -0.02544860391623217 -0.06351377709870067 -0.18605358958606832 -0.060235340423278744 -0.06128577769076576 0.14314725174731663 -0.27725390733011385 -0.17090101826291917 -0.029948752268910677 -0.16085326807507982 -0.003446056701014387 -0.03065422464509724 -0.2478584831475162 0.11420923132540134 0.03132988227792035 0.04739174734522473 -0.08880668784061996 -0.004821646279093684 0.1196695101659039 0.07915939944154264 0.05899459447203618 -0.13032950677099436 0.17151375421400789 -0.014798614885496502 -0.033400084233513205 -0.12100248479970292 -0.12957922968792934 -0.00856505922264723 -0.0270526697941616 0.06777710467690995 -0.2212670885673604 -0.15312505447312566 0.14590027326620642 -0.12619636323723654 -0.0033130652186829216 0.041530721873978486 -0.0984823637623441 0.028882816379170125 -0.0679052248765973 0.050429736587445435 0.118733361224018 -0.015550913995611992 0.11577706570626416 0.03415381808628401 -0.10412836093125281 0.029920901756975333 -0.28911075218474824 0.2780876833969775 -0.18043251511393016 -0.02532673963183273 0.029586963210321313 -0.2695501461393275 -0.06989280053559271 0.03203665657063162 -0.1320178362137469 -0.2669432067850365 0.18726665931218944 -0.15760419267483108 0.03824632846784111 0.05854418727065779 0.22407955926658488 0.0830979411181354 0.0540803239397203 -0.1955179438082759 0.06499162638332685 0.14011491180232638 0.12851557773352712 -0.04355208868321445 -0.2700224052496287 -0.22048860308068652 -0.003970963933216176 -0.012069822156901883 0.18319860667562274 -0.03681656472517543 0.02884050822526945 -0.10524683056134322 -0.09323766517917266 0.01696561267223786 0.09502332750973888 -0.19096032670267107 -0.10048291235573249 -0.01206622138989898 -0.0043088165173115105 0.022134557689296924 0.03652411410324072 0.030274270922612482 -0.19864373402102342 -0.05541622224850978 0.0699198330930321 0.1331963328379745 -0.18105507162184226 -0.12279775847122981 -0.2177808168114485 -0.08620696608159856 -0.09015382380336696 0.1023739744144693 0.00846056028061008 0.03094873551184417 -0.24522778376906204 0.11319848962293101 0.03324961497731821 0.12345533899473748 0.12368384649320459 -0.13168073580421108 -0.07127148640298009 -0.05308347408797933 -0.07955746982985029 -0.07168558181663391 -0.13061441305378094 0.055340305431251194 -0.258376720016789 0.0689110515907825 0.07313212741817868 0.09284128393749948 -0.19221937801092248 0.06938579474905371 -0.06264431845025765 -0.05296894221247145 -0.03976019087401542 0.0691515033447226 0.08925904856234138 0.20825854336288196 -0.11878950298388104 -0.07380602058363729 -0.01338245821598973 0.04977955100646202 0.01574163357023707 -0.05438310970215347 -0.2796567402663407 0.06749114659474345 0.08485135035949894 -0.08446310913821707 -0.028694918487893118 -0.033652598674028054 0.03000537511138835 0.05143640128278854 0.11246066717720046 0.15580132703287078 0.15867429306718214 -0.04061634050421401 0.25761885738569973 0.04115542518066788 -0.20188617373024142 -0.1876815582506525 -0.17009514618086077 -0.025944291051681938 -0.11785705552746505 0.01678093139792625 -0.008784328446998906 0.1955149199017241 -0.01704272469273646 -0.005226959121547785 0.1850480204185468 -0.1754374260551278 -0.24719158151793844 -0.07932129088509057 -0.03703903399087004 0.018464076134233995 -0.16729402441602367 0.1808300995410112 -0.05061091988637432 -0.0018851354247208052 0.08452926983470575 -0.047987183665293635 0.12358033575429694 0.15727517941176675 -0.11340777446481212 0.04099983143738437 0.006880209825180235 0.04776771212732801 -0.08764952711934766 0.21569879862809904 0.12428102089929983 0.0128687840418012 0.04787322203040909 -0.0317364144586315 -0.04888600458291303 -0.03206617195602917 -0.06884996614582313 0.28781247435860197 0.05017643650417506 0.06831997588993322 0.04263710654205638 0.045026892823455573 -0.06091558031778755 -0.08795134842047761 -0.01334510382784086 0.0743082017772468 -0.015663439874190794 -0.0267716488989268 0.08931476160432851 0.36564087166683307 -0.1347534985159027 -0.03844728999488906 -0.025183866668250357 0.27337630547651925 0.046382777199984154 0.1923324077724309 0.02225932097630722 -0.16307904573927703 -0.08012957573270835 0.2049052580708483 -0.015180919021191352 0.026897521482905716 0.07598054123680459 0.1377965204439427 -0.17769201928128328 -0.04133575272020862 0.09740787051532175 0.19971684179319718 -0.14268758741928386 0.08132533313288366 0.1708870066043036 0.10564826727928983 -0.010419099082924712 -0.031918002910032064 -0.008535153178753627 -0.18509028888424298 0.013387508664431006 0.04569190950272807 -0.1097315867691968 -0.20800394785443788 0.14479697202642133 0.3562668908992692 -0.35946773023324496 -0.07723406186375753 -0.09246897210566805 -0.14470451309526505 0.16428883773249728 0.16996053234306102 0.14803767474948817 0.12886299983063218 0.10127858973398715 0.09854744189897098 0.010453844379596046 -0.00698611385353979 0.09267092784943323 -0.19015955144984337 0.15293519567285016 -0.0524360908164155 0.046112569586311526 -0.06666519488105592 0.0016531249300165615 -0.036682635046688124 -0.024384337452673696 0.0017030147508670084 -0.10064039061636983 -0.20882093791167022 0.12583719965612525 -0.12547593117817385 -0.030753337550914524 -0.08490540163356503 -0.1581557493487449 -0.10328808534000873 0.05879636609576604 0.08008847917249419 0.15261941814993113 0.20946166372911293 0.038389406075658716 -0.118424452570111 0.07939495581788217 0.039443696843567806 -0.04845472632649122 0.013273601116050191 0.1315448241148521 0.20656588602102696 -0.1061431460309857 -0.0705632539185978 -0.10396374368749675 0.029626653300161277 0.006568266504728042 0.06237842026002504 -0.0317575808553047 -0.23978281856284003 -0.12596375867871312 -0.0878699812616996 -0.21123610411007868 0.025587776295879036 0.07776883714655561 -0.12613339907181453 -0.13916169175908524 -0.02753671652314161 0.15278816904502998 -0.0696796929881092 0.1566258489384594 0.13123981047069105 -0.24810171023012617 -0.08519162874488233 -0.016202616346276698 0.0494402786883697 0.013668663981187433 0.09897605435465615 -0.11005348317761937 -0.06734714568684806 0.08886608126871617 0.03401869635148403 -0.10539539816913242 0.06880415645276562 -0.04598929103195967 -0.00772531293839875 0.09868480457241381 0.20536042258153067 0.06986932417264405 0.11507197496331273 -0.10002349777829982 -0.08026938102817303 0.07759761804333917 -0.3338843217884947 -0.1484695085255363 0.21077282588169338 0.02262499043570612 0.10686100662311357 0.057365826571571216 -0.05658704958460582 -0.19392002104619885 -0.06520217003512299 -0.11757317531020132 0.18740462026930524 -0.01760881096595773 -0.134810131824356 -0.09926420932649788 0.15205116674757868 0.027960197514568467 -0.2568245917925705 -0.015024184269543836 -0.05961133539275902 -0.14671974683485617 0.027954467911854082 0.15279547190464762 -0.04675515954091751 0.1743267558136081 -0.06264622608547038 -0.148929660864331 -0.1683065639266802 0.17179455352077913 -0.03957910733060646 0.14924107727462194 -0.05136161628891612 0.03584056575455035 0.09868552827026458 0.0024562388067248977 -0.21621933909937216 -0.34644509038379606 0.06240393342294532 0.07245791377793884 0.02939346813265855 -0.034050627260912084 0.13086097089547594 0.06011635805492831 -0.10217790660361802 -0.016102771339997105 -0.3242250234469093 0.14294973924265506 0.11941610008117488 0.1258662740652378 -0.04903136754462374 0.03444828953872296 -0.1132694707876144 -0.05873499318500577 0.1790281873630956 -0.13667745255599875 -0.07913700390293786 -0.03283398283492827 -0.05174811370541167 0.1343610745421587 0.08629298506271388 -0.05663127095521016 -0.15788867771422388 -0.0049092660930356285 0.04844060834990797 0.03604884590961319 -0.039327604735991395 0.053759131030760486 -0.1396531730990964 -0.23264465240759782 0.026701608434636277 -0.11295669250870397 0.02554906085769095 0.10646265507475541 0.19290963277102238 0.18565417612477828 -0.039252612063513416 0.046245672851540465 -0.2223816106502679 -0.1948439145961888 -0.254569658725538 0.18768913704827625 -0.02376801566543674 0.03191594415953707 0.09678395080306716 0.040934008921439696 0.0908537459646275 -0.28276996887762035 -0.09451432050067869 -0.13877219475474667 -0.07171966652622823 0.08606887617209663 0.044655440371120285 -0.09109380395307165 0.1305534115839748 0.01050478660336002 -0.05927997478694435 0.1810175382614171 -0.15293368774607632 -0.1197413272036468 -0.01022346858616763 -0.006264188698810662 0.06645590176597557 -0.010928522716309626 -0.019651259226879464 -0.2085545096700476 -0.11193022704396306 0.13732836826424777 -0.11480822031629008 -0.12632882687906857 -0.06543657170315625 0.042624055472129656 -0.028017664748270384 0.08145398070662735 0.010890513381463377 0.1254166711112762 0.05604074926034385 0.07372528551232246 0.03951404766512697 0.2206166408316244 0.04794646913032526 0.10665971120333073 -0.03693024923191775 0.10429437076708703 0.11058292924115287 0.006959257893037547 -0.06609188252907011 -0.00500203984324491 -0.0699100984691347 -0.12053216459319231 0.16742760638498722 -0.08909769364252498 -0.16260657983748647 -0.2042801102548805 -0.11269497477315807 0.23097905630150417 0.057483171950487424 0.12147013404043282 0.0510778934172869 0.11291532402616052 0.17732835181236906 0.09902180214583066 -0.33592462970335635 -0.1579499727469979 -0.03994282517376441 0.24467074646336515 -0.09415762817404542 -0.1723276249246561 0.03591944911364163 -0.012353559195131213 -0.31030333325897064 0.10465295151267838 -0.2587688841585475 0.03042528111207517 0.27532546448881 0.5175814473004252 -0.14380187961496768 0.30637454835848393 0.13568108197369252 0.14363681182147617 0.05933485544935385 0.24529824912408255 -0.0450885229652919 0.10122448502802242 0.113879724458916 0.021356414856285564 0.13554407789897005 0.24702143491586598 -0.28150653508736917 0.011587783923993289 0.026275944708904576 -0.34245255692005105 0.019138612242536063 -0.14697472770236222 0.18974635237125295 -0.12388946081541244 -0.24307268152494957 -0.24749149990176783 0.1540469174258724 0.19009455509850173 0.015586870441603305 -0.03107264464535094 -0.06766094158481543 0.15326417766596487 0.30510672851565773 -0.07807779755814688 0.0859482363605422 0.0944591422495108 -0.23099153748995244 -0.12897589814325647 0.08305008199126841 0.07269877062122863 -0.00865624430484716 0.05144507994576042 0.028677408813361772 -0.1822693945176532 -0.1279123850650372 0.024509248207385766 -0.017525425361800195 -0.16052487766221124 0.11906491730409795 -0.17380835987167817 0.07673876232218245 0.03429432632527753 0.06734792654399123 0.11963225916288545 0.15015232628597142 -0.11550377099057971 0.1170035910792863 -0.08904472766934612 0.2968186400671763 -0.05656902883795788 -0.1764063495673786 0.0026357407600105906 0.015005122800408928 -0.054454573527953916 -0.038417117869058215 0.19504900932137537 -0.1127049328154622 0.153674853352205 0.17713731165050564 0.10012016829522137 0.11787693827758951 0.08666427540038964 -0.04611799274783992 -0.058628703224417406 -0.14115146794943756 0.2315838885564337 0.2066896779560795 0.04524499021531643 0.023013538975483205 -0.11808016188227526 -0.19791888501958999 0.08551198500696236 -0.01949114396150683 -0.15279071660579904 -0.03940358080750472 -0.23262305234319475 0.08492179231024785 -0.0631163278281731 0.055906923846768285 -0.02285641778622292 0.05349854378493623 -0.034948058497667106 -0.0174380564350247 -0.05332129300274829 0.17852047586496173 -0.03834744187170609 -0.13531810410461062 -0.04412676596883135 0.1300391971018417 -0.06610033400039173 -0.14305268657267203 0.021506979770861464 -0.10895455241092626 0.08417011731961584 0.3400649621724239 0.19266505039406978 -0.09128305739928891 -0.1065670300819675 0.16253243393480996 -0.045417519846032504 -0.37017843934770345 -0.07413480884510965 -0.0531721140663503 0.1577395413581835 0.12247883609066887 -0.008661672099657071 -0.015786227009479237 -0.07754893074145017 -0.043332597881424656 -0.014821441638980653 -0.23400980582823527 -0.16821144366042373 0.04295149804579605 -0.02279583816077716 -0.019076441659228557 0.27814495327008487 0.10089838750585864 -0.08788441604803619 0.008933597266915935 -0.0707693220575821 0.35550283999964166 0.3223705690790422 0.29618254641059166 0.17086597345049986 0.2254093004916399 -0.15821228919435565 0.29320570660305206 0.006480366276981169 -0.24785957054603794 0.3264440354261262 -0.3147703100606326 -0.009919430114449216 0.07862758027581652 0.22003882891860563 0.049505619152028904 0.1486540361908296 -0.0072798933443010165 0.3618527941698066 0.017616173768425274 0.07684943294409609 0.3420480370268095 0.04495821125239064 -0.23608520635807062 -0.02491371128030163 0.0890979140019021 -0.25186433822394455 -0.03776535354164243 0.18636661863858042 0.037981698224323214 0.2968901048652994 0.04198219394129756 -0.3981158409160421 0.19199294021949684 0.16763377484559397 0.11153371035109565 -0.08380048578063691 -0.017654767700273025 0.17218096560130108 -0.0007372087575745163 -0.007687759540927309 -0.038987490971105834 0.04314985861422043 0.010676737485107553 -0.07366005252046068 0.03504882079312009 -0.07036367070956724 0.14441675476377763 0.08718352837863766 0.028968701332301217 -0.19064835804684654 -0.0926609026471922 -0.03827928830482079 -0.12838242884470963 0.15675634121249715 -0.05309916738983802 -0.2437833928538732 -0.19876325412786586 -0.06329420835172062 -0.08981083492800336 0.16504049866828258 -0.12481280116250727 0.1354169050805729 0.06741600322671451 -0.01927722494203242 -0.01630588548071667 0.12151695389739486 -0.10417265614096874 0.12109616666980473 0.12849064703322402 -0.12109022381035647 -0.01751897242662939 0.12409029131385604 0.09048937675404382 -0.35817854594104725 0.21374419006206213 0.04783009677579653 -0.09422062857065014 0.006329105821356151 -0.001031837355391459 0.054889966449058136 0.2158613856146013 -0.06979669574764368 0.06220565475005573 -0.141265335358748 0.0883395689746436 0.10360257562192655 -0.10815359900000779 -0.10627988596540601 0.18462248035580728 -0.11759701061664718 -0.02311164674139435 -0.21780095361095314 0.047433499825075075 0.011233958655695936 -0.05933697897499136 -0.08734376662725449 -0.006878776604620264 -0.13041854736411554 0.1279265985826921 0.07521507700000973 0.04254612829491302 -0.04881410497394934 -0.20632310731668124 -0.12862374030669696 -0.04680009777086924 -0.05024440697392031 0.051477827380599195 -0.05751115829185817 0.009204238067327833 0.0011077743567428759 0.19528567260583055 -0.03484512517201429 0.13509847392324215 0.0021188823500188064 0.15885425798517686 0.06797102095238285 -0.06314548211948318 0.14297048319949146 0.2985944588279346 -0.2679685219144861 0.08095495368816745 -0.028602774738215216 -0.034948503121352024 0.013972960066704352 -0.21906505758594244 -0.21278236399273623 -0.016489918266544827 0.00537345512790624 0.055632054385534986 0.0062661162901554894 0.19184021974814217 0.014603805632895338 0.272378461801223 0.03433223261069395 -0.17838637367289922 0.20953911300458916 -0.01780592553213324 -0.09926609993613505 0.08479045831895933 -0.05774492593796548 -0.04002534797134393 0.04620574659297869 -0.11116749086108166 0.0008192802728977375 -0.05205610344115415 0.09810002090030771 -0.15630482619908634 -0.08162845799685728 0.1178968424155052 -0.06598006583626106 0.07875197311682329 -0.0198325475915824 0.14401269131157338 0.2391130982219952 0.07939574549409953 -0.22892703678737966 -0.01744703043477243 -0.06308321177470348 -0.19343200018201806 -0.062122955222378276 0.03255928275293838 0.007236667081864263 -0.10095657914521211 0.1571802060069102 -0.027376732530956342 -0.04701306058035409 0.06034845596047689 0.2004814020089472 0.07775046988803327 -0.0746922085752159 0.0760711734858849 -0.009744252179829192 -0.09032766254230598 -0.03659482593586049 -0.0843864514377996 -0.0673773902281117 -0.10356879034689048 0.007174998540698161 -0.0019614989166348382 0.024914106951220445 -0.10640983991420158 0.10802130950818054 0.0884994554123951 -0.1358617705503579 -0.02936925244345001 0.21443976608904006 0.016158470214882266 -0.0008789992480932084 -0.11849186259860012 0.05801458082288768 -0.0636951975716064 -0.10094057218378218 -0.014065717785964606 0.1305938035531284 0.08909503974073839 -0.15465032384751723 0.003463232338396747 0.036847044351196526 0.03497848777745782 -0.12918221596421417 0.0641974190251043 0.010447650964028912 0.1169997531369746 -0.08432863854938977 0.04073386366977606 -0.008878693846269 -0.10963330341591118 -0.07792916671894583 -0.07551180804697324 -0.15012603052335316 0.023083193397528862 -0.08100128864348233 0.06773046360844658 -0.008756447492502527 0.03299334319480116 0.10101306704557532 0.006497880397710911 0.08222823494569503 -0.0048551993135356524 -0.11981126220501333 0.13084521992258508 -0.01879040000386444 -0.10287597886119947 0.010038575050774157 0.11555560318395908 0.28864993127464506 0.012826291653727437 -0.2027014096406634 0.0670700827426159 0.021813105986403045 0.14327487508633555 -0.0039360622616241 0.12107961242302179 0.23446534417390852 -0.10174840545488065 0.030419738230124324 0.0286133664776567 -0.11219627869717617 0.09871636007098693 0.0024601768387481487 -0.07126883639468037 -0.06281390176932435 -0.1347477307647507 0.1727329315933236 -0.07108759215325239 0.0541832918078094 0.14690656575520397 -0.06258945595332656 -0.08389504248255795 0.15838970868463653 0.14873329880386316 0.0175619481686878 -0.021618048353067947 -0.13426750702971474 -0.00603606808727975 0.15126416702143944 -0.014495969967872124 -0.13314941083153442 -0.023591590449783307 -0.16554825159833902 -0.17527702978905785 -0.010558242234053208 0.0583017618479094 0.0804030875820962 -0.0048974888606121555 -0.04185933060498765 0.013286739619492432 0.12854820870140485 -0.09328539449099366 0.09271966491753654 0.01093576804951434 -0.09053285754736469 0.08714479223875726 -0.11328782252501991 -0.11831554526477446 -0.02671078417999787 0.1569473205516192 0.22945034231202688 -0.1657767490853736 -0.008675836452601001 -0.04911875197198849 -0.07856773585601266 0.09747485977892878 -0.14980016868345433 -0.05122964089743302 0.0512255504290305 0.06715164104426202 0.041365653322808636 -0.19354179683117306 -0.05507066986963982 -0.08503715033104696 -0.13308483746659852 0.0005483367233555593 0.025421220141151793 0.2736262138683701 0.07801552363536547 0.1036944880112591 -0.004040550580420163 -0.0573430553178787 0.0751066624135876 -0.02642375485347611 -0.0728910159400605 -0.002397194489371758 -0.09316045271898275 -0.22738710387623215 -0.0837578849314869 0.048624703176827926 -0.04834172450361252 -0.05663837309033273 0.01645585075840878 0.2765622772600501 -0.2277487495858593 0.08426063841356729 -0.027001246403596108 -0.14482545491600643 -0.011084079160276651 0.07695070137576614 0.02752789693219186 0.10480377677055645 0.08782229315541017 0.044520437421799654 0.13119772517907716 0.017920878442624872 -0.0009470795676935446 -0.11490595546668417 -0.006536807930202548 -0.1353852813504861 -0.10686539929157331 -0.0010534372034001437 0.08834821847061704 0.3628315069242661 -0.03666794822079874 -0.17521100302481124 -0.025091792747560477 -0.1214490482541405 0.1269863598842903 -0.019964756119081828 0.002461181304453519 -0.0007500473502451342 0.10454482091414427 0.06614616751016186 -0.02642859745577395 -0.25705348008975576 -0.05282348730447791 -0.09046115920656031 -0.05767204277430679 -0.027210890928290682 -0.25964628757071967 -0.18263135035673772 -0.06337032117062143 -0.06118211472721662 0.16855805071748858 -0.04829912815722743 -0.08127338682379745 -0.006554600349482215 0.16824685130612294 0.043711189040520626 -0.0890500833309554 -0.12654380828942824 0.0762035958087505 0.1761138670805375 0.07490828243413551 0.06286231175646512 0.0338759688597238 0.2701225483244196 0.11484677072125107 0.08094431438467081 0.040225292272089874 -0.038542363910500796 0.07338286426921835 0.010897898658138868 0.009841460166860177 -0.2159998821136131 0.06400226025410626 -0.14893113338551434 -0.141600210998867 -0.3579776193845904 0.32389251267131625 0.03482217030722004 -0.0049207261803275336 -0.23303184099882068 0.15113139212852128 -0.126265011701349 -0.15720941063870564 -0.010974604232127814 -0.08848277007280161 -0.19291225757456118 -0.1848245639338253 0.10359027917166697 -0.014592489082973326 -0.025397599159693664 0.05110935918578603 0.041029416648043875 -0.0487640807121119 -0.10471158281771552 -0.12013162464324284 0.036472113359538136 0.021310084224540223 0.0739074450456915 -0.2727549250357682 0.02210496449863643 0.32839819156608674 0.19617109296210786 -0.28547547491674335 0.12590056795979238 0.15923863756699153 -0.07822437999838171 -0.1658827687104895 0.060837438194067325 -0.03234380360028966 0.19051318473770745 -0.060328302565534835 -0.04750118092075655 -0.1882778841934394 0.12378833881739532 -0.1973181330985622 0.1101868949015788 0.1849865386181302 0.24939871664544933 0.17532723298851935 0.059343287376042816 0.063014749529447 -0.0084924312743256 -0.011121199790895087 0.012498621436497511 -0.07493998730025259 -0.1659952818181569 -0.009151505273221202 -0.18694343601244987 0.0813967461971614 -0.15128734296008414 -0.2614223320139388 0.022429370545118607 -0.1822560112359148 0.046170088800639525 -0.06364786273834287 -0.11073393147929415 0.04516306267729669 0.1672652538054829 -0.17071116276322454 -0.015997911867413804 -0.02000693642407087 0.1317169465269692 -0.22412341511960826 0.017685823306435543 -0.1879453822683417 0.263553697171017 -0.03269944565784029 -0.07803478866964453 -0.09916637810577464 -0.18158074251386555 0.019513611096508943 0.26686966033289394 -0.1300743552749282 -0.1379963140564162 0.11662126193755057 0.06156459772370835 -0.2626505044208062 0.17860036285396116 -0.01595911210496101 -0.012513994118524718 -0.015003008216820303 0.09029268039216584 -0.08537087808654924 -0.05072785086398878 -0.04057974294912868 0.0010057186307015835 0.0716848874014505 -0.15443666764555958 -0.006052904252861524 -0.09573211606905385 0.1716198622790661 -0.13715326720629414 -0.07115405736821977 -0.19329735509600443 -0.056707460130713705 -0.01750663985282966 -0.20034625274871062 0.21823277286706042 -0.03135797798699913 -0.05188104838448784 -0.09880631915551615 -0.09819369828404814 0.3579513351408864 0.13001645492922273 0.2120080187548387 -0.03433247851590662 -0.16219450069923044 0.027615559607757596 -0.12401737681518592 -0.05164523726622656 -0.03264343533662511 0.038114956913396295 -0.021451853819254813 0.12188900967163681 -0.017294768182218277 0.13501053468599308 -0.05366427025642129 0.04338065443024221 0.056344208253394 -0.20101284650425177 0.005951961274326278 -0.06411779015498888 0.3235650131867504 -0.16921301477098813 0.07798694837395927 -0.03827344089315372 -0.11352952970318099 0.17979185251737387 0.005470486550533444 -0.20572594429385965 -0.010789974906975298 -0.05847182963449315 -0.2388031938412311 -0.09605673037348987 0.012674223752907892 -0.005798390641713206 -0.10909345131060802 -8.144598527956412e-05 0.3267687084359406 -0.18913389597827113 -0.013644931223400634 -0.225662747651806 0.0938876694728699 -0.06849399781154321 0.005257054245068123 0.04688247791931504 -0.23229674412458612 0.03533127220191944 0.02013950078390441 0.16907570923974963 -0.11231804357629156 -0.35870130289644236 0.03473178703833045 0.08482878725210932 0.20565941551101427 0.00543164729363026 -0.21608867130138232 -0.04400987848049575 -0.03835532108018754 -0.002688853298774112 -0.294343950004693 -0.020311365151854555 -0.0650105549067491 -0.04520448219902207 0.08737974544463609 0.18779363275581293 -0.26644173509666436 -0.01059683273421846 0.1827134796084272 0.2343020805428661 0.2942075533582969 0.02956485718159852 -0.09578830770061812 -0.007697325283254719 -0.500514635650832 0.07944115582045784 0.15431943593994465 -0.14484119045558935 0.0465568474136378 0.03923792123028913 0.07053652284809002 -0.10007048283876081 0.1151299008171461 0.06422944048390536 0.011064351321313108 -0.22782605759559246 -0.3181803878783213 -0.07723777960106233 -0.2579780378880024 0.09380936591904428 0.23362816422778454 -0.22429398449620866 0.38460808685371234 -0.16101970369533786 -0.28137070777436757 -0.22285942651682852 0.2758111926266105 0.378152851657914 0.24969862284352967 -0.03766735838930945 -0.16241232762060487 0.24956929873825923 0.025760469261599663 -0.2452825543237159 0.09918706363641554 0.18810493443743487 0.0019620781914691204 0.1664241587259848 0.17391612575420007 -0.0993677963719605 -0.024787462462845643 0.12730700895414535 -0.31731341050739975 0.146930826607896 0.2604408347609394 -0.1012170789893204 -0.10588401381306266 0.1324626280145752 -0.003266049567050699 0.1426049686100607 -0.09370095799620405 0.16891855153680807 0.4202419167571102 0.08759008439805649 -0.09279246522759459 0.036595092659889805 -0.10121193906721006 0.08718264734428678 0.30189060796415057 -0.08328629978400696 0.20244022699888886 0.07537945254836924 0.1758971683511172 0.024892535992269434 -0.06415675864297374 0.006406059361529335 -0.05956035150339045 -0.11813536215096553 0.1750949278149449 0.2578932371928408 -0.06984362015325678 0.1406321627218861 0.01714566888625496 -0.03396777278047243 0.061606273613071014 0.05144428604952333 -0.1014138326969517 0.10531314799513519 -0.07480179371067604 0.18088916894931067 -0.027137536378813904 -0.05401595684450667 0.09956804974762218 0.028448436790907732 -0.0011831762436821268 0.08998074481756635 0.04449151667643932 -0.18252210645826084 -0.013942220289833683 0.03494146281149023 -0.03918722979621835 -0.12672844412771248 0.010578986031301871 0.14674516001270257 -0.017956320889159435 -6.464081251145949e-05 0.1029568522852172 0.027832537399344492 -0.13164905030060642 -0.01664786556740155 0.03981990841629105 -0.06688882490316025 0.17397760210528035 0.016500636312032933 -0.019642008941305834 -0.1486085782090266 0.006114970954742643 0.08129594236810318 -0.09796199450598808 -0.0032030598926055536 0.034799377730356684 0.07957140186847327 0.058577654339235244 -0.018089408903896903 0.027463882788276106 0.036584642876803485 0.05125578106698536 -0.006814491242214238 -0.049550078298076235 -0.03807912328403534 0.10666488407081286 -0.11177052732287547 0.16810886449535908 0.07518661764326436 -0.11814896796626939 -0.03518443367600492 0.12325873811758525 0.07305810378486598 0.027367099618023763 0.21158498045378724 0.12120433511347292 0.21961470218823811 -0.022420939513495927 0.18443164383748262 0.03500668037067153 0.07139818853568619 0.07003284146441706 0.06198376672598177 0.00044665188460016884 0.15586546194419582 0.005791377698192324 0.1169521191028688 -0.16578514117110846 -0.08782618429647865 -0.2350554446137841 -0.1122303314846989 0.03983182023685779 0.05895349228397909 -0.12342811167219991 -0.07864791319714283 0.051414175245097095 -0.1202050270421596 0.19195167327677035 0.1840285424657608 0.14220000774954547 0.03524446019670883 0.05448851807725012 0.15404444785167787 0.014502344126451933 -0.13140555641809912 0.003062904621477398 -0.005787696677495277 -0.09164303049094584 0.16928023467398737 0.12880964937377276 -0.10968276399383152 0.11227667974912225 -0.11433258314152626 -0.30394512801807233 0.17636547380429696 -0.053802153907394734 -0.11817894378091093 -0.05126560186288203 0.39876839009645154 -0.11868024576419309 -0.06254573951947533 -0.05117431898827259 0.04291124656047857 -0.032991098706125745 0.060514618893958635 0.15403854993484734 0.20303222310952693 -0.16034553906632515 -0.11164524158548104 -0.10332150735767259 0.15843442957001985 0.0379680243122988 -0.12240596125782813 -0.06277343160021766 -0.14480290239974752 0.17255442021525963 -0.007924139662617548 -0.14583345530559358 0.10101066999702121 -0.27571120097600216 -0.19237138969691361 0.32528275495978465 0.047262230065564396 0.011168285869017032 0.0927446787750295 -0.2609997209542189 0.07418758641754024 0.10851871525026152 0.0798425042826403 0.04684887713763383 0.0730427337558223 -0.13633145293455395 0.38627005403388337 -0.34448634837919556 0.03141067263110743 0.06921920978650016 0.019038344005938446 -0.06500850452991683 0.1103994685924228 0.13402717416571003 -0.05726217543563206 0.1010271466736466 0.3176522735654766 -0.0569718886896723 0.002469677712099118 0.35571309861417866 0.2311337830118971 -0.09710767006334362 -0.10666867164621051 -0.03739108901356796 0.2513737255873687 0.0980078025117845 -0.19361433085479623 0.2822113570098993 0.2616356455202485 -0.05092478166455113 0.006834258195325238 0.03059054983695608 0.11586800403303255 -0.08670893664196758 0.1288415637203531 -0.24311150549418092 -0.1003664131342139 0.03939439782623719 -0.035093605518524494 0.07491802489601614 0.10164306476301951 -0.09315316745855388 0.19062265382992197 -0.09131358856287296 0.15068307225069016 -0.10770072045818431 0.11759450020882138 0.03340488801732107 0.06988980566916678 -0.057053611463152264 -0.15369201002901017 0.14060832369496118 -0.02817639591992162 0.03558024422771193 0.04638893791048485 0.15834385093841474 0.037849193694775754 0.004817571957327205 -0.12673825521119136 0.16427876595516608 -0.3136838051223135 -0.2668897430779388 -0.07211878020622184 -0.015028596428839377 0.03911572506005835 0.04433866496159032 0.1206349453029613 -0.11093796067678975 0.12830079972158268 -0.02063854900059596 -0.24426964537433554 0.006560370980404906 0.028837973027364867 0.13773113740018084 0.17949824728322777 -0.19156915824919774 -0.07287897137581002 0.1765106780904406 0.04273321862985823 -0.1232350425056325 0.07292124899097448 0.10421578921797615 0.033009148162163986 -0.2068970414810085 -0.25925272477164985 -0.12106479615599136 0.19171517234622523 0.10955801503184764 -0.05425695899859752 0.3926360965829494 -0.4035563544702564 0.0443355217214646 -0.042481723681930934 0.019136299156043687 0.08780381470196907 0.046525502445788305 0.04423758993691976 -0.4230444567756467 -0.018555220727153755 0.025834725920329645 0.14817380293144908 -0.08557507466494554 -0.15748014986738473 0.09046448660362322 -0.17113322773187212 0.03875844317332354 0.04266449822971677 0.1458782728441851 -0.02820638832239059 0.21783703952892125 -0.007975026269182027 -0.08715916011482365 0.04268672548039078 0.0871838955112572 -0.2006131070853714 -0.2082882373329828 -0.12268608546448048 -0.13885683921991848 0.09895499063133487 -0.1728282976081304 -0.1950094349363799 -0.030242270490562346 0.3351067306455261 -0.30836626640522413 0.07138101052122407 -0.1053520616844214 0.026177703410449865 0.15184214484681166 -0.13666919559670435 0.18389137793348703 -0.0008897143228216108 -0.05411863842335405 -0.19822186831736802 -0.10160287498706695 0.09958544322810554 -0.027140505682125338 -0.2349511064553067 -0.04052284044863669 0.0502424796204428 -0.0417464829520522 -0.028329020002612962 -0.2605961278175245 0.18591090281358513 0.21556669097830625 -0.030202216882968983 -0.05988601344871968 -0.060804636666532685 0.052230681336607 -0.05334906334794047 0.0674845480468964 -0.08623706244808693 -0.03583192946617362 0.06145516847274107 -0.04638269026021243 0.19737526818446546 -0.13048575879587943 -0.11675311469747786 0.07082922143024854 -0.004469572267929739 -0.37547791654429036 -0.08482016711854297 0.04447190119247002 0.17103596731188214 -0.2576202300807956 0.05588365037485 -0.05890674236382825 -0.09343329479249121 -0.0813363132174873 -0.08474976825476856 -0.0783241153202275 -0.09005268076407731 -0.05637131197878517 -0.02288682732255128 0.22899014556129688 0.07877967652731141 -0.05502402498524088 0.058765400289874356 0.06567033734951142 0.17742756011863803 0.07160673895243069 -0.20223032719003572 -0.06933760251441809 -0.14294721942788252 -0.09131974474378682 0.03358052361162884 -0.013239970102692757 -0.060772062916319564 -0.1372271169232076 0.15931890550344605 0.07397493368934521 -0.07776104348675164 -0.018360031941993482 -0.10996157827537957 -0.29341399810736957 -0.05827794871298178 -0.07494622928055497 -0.24098823274369574 0.1091770811017278 -0.1690208494395726 0.0487461826689339 0.052099517279792014 0.10240160996468238 -0.008116180083233258 0.015812789348983357 0.09406723201172897 -0.09405175797531987 0.0648258738102576 0.17866684645340355 0.16090787440617013 -0.07906468499984041 0.0785140242248647 -0.013282956506288067 0.23034571403418344 -0.2463210887301009 -0.11315392959317087 0.08215012793396348 -0.09274605340384595 -0.07573017826835901 0.01272306662866309 -0.08128143022618124 -0.12027396455336864 -0.14128815944684162 0.1326192954745765 0.20196007702057203 -0.0029795750361706562 0.20972672772830506 -0.016851804572978836 0.11971990987210376 0.2115370789727858 0.11966641059080689 -0.052256379093960616 0.043536446038451235 -0.03994919701623498 -0.11510126439474783 -0.2089948397804771 -0.16127151703348047 0.06046524884544877 -0.006312998480961956 -0.028628155736160166 0.13944681054935992 0.07093715228637057 -0.11520308082564557 0.058759816639755644 0.26405238855400814 -0.14933285853899533 0.20660516034178705 -0.09087259703881903 -0.04971670433713126 -0.053417839082205695 -0.14022080491014483 -0.04874817266344394 0.1460395410951974 -0.1778065676745593 -0.10661758590652456 -0.05889382264053956 -0.02209015684964808 0.07506550895870831 -0.21776171564794644 0.1738313566797398 0.11573642551985576 -0.23622308771142458 0.03875168290443427 0.10515899043712469 0.10630382865757161 0.09139299233971337 0.01581764547003292 -0.17087396570070035 0.07938985990041342 -0.03324459317164637 -0.12368238835026477 0.04152560476225595 0.20774874180129693 0.047910369272691086 -0.20197720817722484 0.0588658007241987 0.039269407602186876 0.017146580477764843 -0.07735587461234149 -0.04954344548288127 0.11488590347966497 -0.19472124903323623 -0.2285174032189355 -0.03206945970068569 0.15079144765483926 -0.1759766317146547 -0.10017366306439424 0.029477113052424682 0.18547592174795174 -0.09212551228374281 0.3150475941707354 -0.038417440505199206 -0.02922845462410371 -0.11583237879017563 0.004531265593733897 0.1989902571844649 0.1727136967047989 -0.08905682614702987 -0.05035633582009111 -0.196152801488312 -0.019151079236735594 -0.06521534256460099 -0.12356778445836383 -0.19158088921176628 -0.0013992739943858995 0.0487155640517812 0.01314054282573774 0.03133148376752328 -0.10791539724666252 -0.2576890827843349 -0.0013361752832172663 -0.03456549316470939 0.06363996299793186 -0.005716126559878031 -0.07857362284287707 0.1063760520025163 -0.2914841688080673 -0.1146735225101903 -0.030568211036934294 -0.13479514883415414 0.0007273207921264888 0.19471823665362897 0.020652164109068623 -0.018411720197879143 0.1358585505095619 -0.09681274871309774 -0.08818814501139148 -0.06752519130549338 -0.2547934386596917 -0.04815655509449964 -0.15117697249257805 -0.0072601319488998185 0.18163415163730626 0.04928412977950189 -0.21607314749586515 -0.027489373883822162 0.11472149540158433 -0.1756355122130371 0.09482535349442568 0.3860320845762347 0.1904369155451251 0.0892603245596869 -0.052287982265661136 -0.026935542291118574 -0.02846681535200981 -0.12116343444017824 0.005830990894766366 -0.047097314506434396 0.0076614550255326725 0.13643159265579502 -0.04710931298425566 0.18784023683588844 -0.027003102422486516 -0.09052580983322438 0.4060363930737477 -0.03533598222683583 0.16015102785457327 -0.0705612665679006 -0.06212279239672555 -0.19731803806716774 0.011231686418680987 0.09011777780180273 -0.2729977513711995 -0.1242863173496559 0.18938109198489403 0.01224282156222617 0.1426704169285042 -0.14139631637360842 0.0062716231062309715 0.016962437695229367 -0.29963824820813334 -0.013437055944992359 -0.1878730701281868 0.10706862870377855 -0.10269745790887798 0.2322017681519125 0.1849613681031208 -0.010256547543150264 -0.13186668888622202 -0.015328563517886553 0.08354135182620558 0.09398482648346515 -0.1989689220320309 0.09048761003073068 0.09096355326255266 0.21336389088609112 0.00787065240799275 0.11761601014986378 -0.3401472653360521 0.020974714396585947 -0.0352409814913791 0.0025441538345815514 0.09708174329577103 -0.23169453371895898 -0.12038707059307567 -0.06171157274879267 -0.04289553546457115 -0.010582123803639267 -0.04255459395779952 -0.09932933219764042 0.056853744649491084 0.027181764098136052 -0.17222421332091697 0.1029978603584923 -0.08691956823325082 -0.11721658945189402 -0.04932146588698015 0.1987557351518649 0.2242562204682035 -0.04727038781682516 0.04576272723260677 -0.21851037942863052 0.1368028185693796 0.04632420870914067 0.12428842638134581 0.027237151982971483 -0.12417064294073343 -0.17209591472304714 0.10486678664522167 -0.20693933004182896 0.22160910028012137 -0.07693894705961278 -0.08346414801216591 0.3044136133034053 -0.036306242136777404 0.20890813643128206 -0.07195963147486253 -0.04840456507568828 -0.22832036378016193 0.12519079683439857 0.1570634476346577 0.29976445807123386 0.18038946840589293 0.02146708223549075 0.10847982643805472 -0.06920203857327717 0.11640722842424613 0.12791632301506986 0.06515603222643251 -0.10372911126644253 0.13861921073172692 0.0029942471285854494 0.18254988956919876 0.05343819891311137 0.08829895382738319 0.16548732082734952 0.16478137350251001 -0.10721353471872291 -0.0034973004620546125 -0.16891961313695866 0.23982923181193375 0.02457780782711982 -0.05798563883092843 -0.0005829945466131008 0.011802022273468044 -0.16316156361423909 -0.21908731693911088 -0.07384928621049984 0.18632314036778505 0.2100738390605748 0.011803752025954689 0.10882767781877462 0.2728466653455988 0.17749169760961866 0.040684571160696306 -0.011781203901159418 -0.005846430327138642 -0.08664902746844122 -0.2576997296647288 0.06231941547343722 0.12873255975575537 -0.015260378428127186 -0.08413586367189932 0.24826584616430053 0.07376979891261638 -0.09790961268537655 -0.09423102346516991 -0.15753006788222843 0.19944249349956125 -0.0060627816993598736 -0.03442122232638854 0.15593187439338613 -0.46681352424563255 0.10722301799907939 -0.12048985877250572 0.1576925199548612 0.2334485396631418 0.1451911390236059 0.14633643766850965 0.0010629732887782175 -0.11120890490129126 0.32464827645210975 -0.05814885639120417 0.09604458324581652 -0.047613759193301186 0.28434132553483155 -0.032519245844845064 -0.020610432328206304 0.1500374780213809 0.06020062123042008 0.18987388646952766 0.11807409974923187 -0.18594127306937788 -0.030290758651979804 0.12686595059919598 0.023771510645548544 0.12488694706109828 -0.047683903666916605 0.0954646934740067 0.32837127378670455 -0.13618462148838553 0.03616057640573321 0.14218532918431398 0.050256876269839164 0.10941548647345804 0.01404395337871021 0.016588532523502477 0.18543073182694617 -0.10172812605794648 0.08281888738610907 -0.1307435914154522 0.0330176771776876 0.09375855282857815 0.13364266831578053 0.04325236460784309 0.11067378148310994 0.02301228786780135 -0.1951066481391084 -0.06128657927914828 0.1304503377465347 0.10292782614695449 0.05210696704989422 -0.003803307544968622 0.13103471409468723 0.04989839456434835 -0.08254107034872936 -0.1057700282104721 0.0749431818566875 0.11035493817098528 0.16986990433729637 -0.04857434448604861 0.1145971457491875 0.09337777733015055 -0.12109284841970128 -0.06552611408953668 0.07557856915589073 -0.27567411833100336 0.03269779461250253 -0.009852505155924342 0.041335749253876605 -0.10310260215500254 -0.10847087993098559 -0.09108328153956763 0.01910350088483755 0.1228594506769149 0.17373541220013522 0.17770591765007168 0.14038628763776703 -0.035516389619048704 -0.08623978314575594 -0.02929182459890867 0.17939519962198106 0.20730120128387122 0.09373440758911582 0.06093813059044872 -0.19470289097989066 0.0009423510288537708 -0.011980345090327013 -0.05076180728809615 -0.11472500264418063 -0.08206740087297598 -0.12933999294872545 0.03778217300733912 -0.09485261581881778 -0.0624319146197098 0.15277595530491517 -0.07033911292262965 -0.1798432089090029 -0.11637998170794445 -0.13545174083337289 -0.2236803619853927 -0.33640972751243975 0.12304366742748672 -0.21978654580608026 0.1633360166959492 -0.057418959296747896 0.1270673582893744 -0.14800469454631135 -0.015562154151145643 0.1009275311623069 -0.09173496954041682 0.12206730964391298 0.322919922566518 -0.021472428094243906 -0.17729201491407176 -0.050738218901018386 -0.060420984145997725 0.10112730755878005 0.10847564725957844 -0.24876125242159466 -0.09515166851975104 0.26575520222080834 -0.22454811196406402 0.022212983612592222 0.14225212408185192 -0.13126278734749341 -0.15361741028726836 0.01885379076558613 0.13718751281908106 0.11796670269782142 0.3944322902580655 0.018798316984799845 -0.10515032241636647 -0.11188653623080698 0.1420583851493836 0.125083961352111 0.1016303828917878 -0.16858148973630438 0.12538458368160232 -0.12022441299464337 -0.1451148487893223 -0.1495841871946855 0.3123087285429759 -0.14029259557130422 -0.0022567282746768645 -0.09604267354437158 -0.07276859823666938 0.1159049609147903 0.03340590243079898 0.01467581158750836 -0.11405884238978313 0.2019367589810195 0.010489284160882554 -0.015485230482345748 0.27423259923294985 -0.0016452561773070524 0.09987279435483151 0.26376612884734474 0.1991339758744887 0.06563023040908122 0.03792912475319214 -0.004566554029197617 0.1421005123229619 -0.08989566387437095 -0.06043017175662039 -0.017267075013574443 -0.073391624197914 -0.09947353293947987 -0.18585571814436663 -0.297565602017742 0.18198949878414278 0.27992235506541846 -0.03893950975574342 -0.16906985683646963 0.13748303522652833 -0.06695342744512292 -0.3761092765048766 0.026070219728752675 -0.11770613641783745 0.05376438148367386 -0.11413581427090629 0.08794230539418892 0.04089723123830908 0.08243996137470742 -0.10480861705588738 -0.04666483127955765 -0.14129106304884712 -0.02799144425087393 -0.06389047884950316 -0.0725534229746201 -0.08101921273073917 0.036854738392277375 -0.21230082599454667 -0.10231223826755799 0.2512337071597063 0.08607479776953934 -0.12597185735701605 0.30070446769317066 -0.06477324557502386 0.04896862323572728 -0.06409125266911334 -0.14247270277395802 0.1532582012950327 0.14846003488315426 0.14277450410091982 0.15675617721533472 0.1384574550001731 0.17210552825706057 -0.07948584192953755 -0.10160604039537226 0.3122080578080716 -0.18383559299717936 -0.03980665054963961 -0.18543865354746106 -0.043249441405011156 0.030755574113728118 0.04567076011697864 0.24375042351192944 0.07892678484356745 0.17673918392781968 0.1746659883754132 0.23411961352688407 -0.026204420666711394 0.3268831116788716 0.04389012269704009 -0.20565502642362382 0.10458041126064185 0.03538460619025356 -0.05682236273053863 0.042352911672208844 -0.1161953132577824 0.2933825770356523 -0.24347879387492624 -0.09886049022432648 0.31829003494267155 0.1198667707340875 -0.11136586063140182 -0.15460596027138038 -0.001213180720297843 -0.15356479133176698 -0.31920406157249065 0.09173089228025214 0.08189764218707803 0.0475244914035768 -0.00632672928201324 0.012940164501815541 0.006091707044934444 0.15481807261256078 -0.18147612220180545 -0.04050528996715298 0.07686470035129588 -0.15299721312195125 0.0913080025344274 0.1253430605184113 -0.00974313160809435 -0.15525221243735388 0.10570423812924622 -0.018433248063104965 -0.028384734538779745 -0.07010602510948198 -0.03933631237732217 0.2611551455177218 -0.1558682941922882 0.3260748355471214 -0.0863412808515999 -0.14114360110294277 0.18480643265072108 0.1829714141883305 0.10356653194389127 0.29903896321070866 -0.0002778479540465124 0.04277716980920564 -0.07117516166376964 -0.01002006643364502 0.352254104249241 -0.10709924146802867 -0.09512095387269924 0.00818364855033517 -0.08500020074018833 0.16469458724130448 -0.0066547304857407456 -0.13223124708822637 0.182383062744399 0.13387750924776495 0.052061695382048814 -0.06980853949210486 -0.07242987489543325 0.14631527690783602 -0.006498686226056047 0.07062137440082672 -0.0708698324045069 0.12658504319966368 -0.10546828559131645 0.06353834239614888 -0.23125023732243674 0.08594786204510077 0.15063739341093643 -0.030546947656225794 -0.18071056864571092 0.0724985750746271 0.020185092548757975 -0.008092455427852021 0.016136349588656913 -0.07852603266917275 -0.29087702329592113 0.11258802722098436 0.3517732267687749 0.13104705039661294 0.05317413142975672 -0.0852100390311269 0.05046635271097574 0.16643769233956487 -0.10042433862412205 -0.0408611922216042 0.011047050250194193 -0.1756917296987386 -0.0976589956248115 0.18468263810823599 -0.053914871619897005 -0.13181968906306135 0.19581358907480062 -0.09894703655565659 -0.44765840940289897 -0.3432640886030732 0.23979412114888504 0.1310261534110313 -0.1588265783553305 0.2525187744712654 0.1787052945044332 -0.06986328506453017 -0.025476911937238028 0.0825383214638457 -0.13895821668635966 0.1768104719512401 0.0009460388200473545 -0.0031257041504348672 -0.07944489013556487 -0.040731925245138925 0.13560893064181878 -0.14177917293504189 -0.22594873754320988 0.19670581374244014 0.016788522083073795 0.28896392801462545 0.2008674502201071 -0.21073581119190057 0.010564801597067658 -0.02997554562776979 -0.11226297787796162 -0.1238448146708875 0.08541763728458071 -0.1655875537653002 0.006009990452880501 -0.1502146330906827 0.0040702958495867445 -0.30434750823034723 0.035262026085171615 0.002189769309582135 -0.01059952016924424 0.09515000257823542 0.10255012904689026 -0.1318432996529278 0.06897951731191325 0.12070046911991504 0.14994710036530637 0.04387987542507065 0.0974439037120604 0.04572483475594036 0.022952098880459824 -0.041199825785953166 -0.1456384256769128 -0.13749283181719354 -0.017228062133627615 -0.15442436326863235 -0.08398110712167213 0.046123084547506944 -0.38597841313384784 0.021072434118113922 -0.12275503356800511 -0.06366608283042711 0.08565341459918409 0.05029998972521879 0.04623299549554462 0.0507009073845818 0.10544236834983255 -0.015766445720111145 -0.035436377564435184 -0.1176465409442603 0.08875632829842263 0.057810822409073225 0.14861665022469256 -0.12424301907267753 0.22493349667295154 -0.1473115154213749 -0.0038561654413993545 0.11724183700378747 0.046970766539901336 -0.02332647261637267 0.035502988045945996 0.019260753424604506 0.10723668286897316 -0.20752585022410322 -0.06902776426102836 0.04302693746628309 0.13423589561775123 0.25098024036184663 0.18771896294041698 0.2325779765476864 -0.18977165283915332 -0.3458134074837949 -0.18433211891460274 -0.037457825803835096 -0.12088265216359777 -0.2868468057079633 -0.2638315388897257 -0.25334861265357106 -0.2508043384307743 -0.24290625477223507 -0.16496783884180355 -0.4596882672494531 -0.03950713281717735 0.16191409584016303 0.0756991845886413 0.13578104409227781 -0.1308833167217526 0.16650619228048055 -0.1757986302730786 -0.12228727763660428 -0.008187211757518843 -0.1330035628777669 -0.11302221824980478 0.23983533166953866 0.006293692770840906 -0.12693714664287784 0.1677438542063063 0.10193434601878182 -0.09249780094467798 0.01372340590528373 0.08214067349340652 0.023046954517924892 -0.3138803183675328 0.03459070753564807 0.05911312030060889 0.08826474402550474 -0.12786312640958808 0.03580355515737383 0.3447793116551702 0.0139923741600316 -0.20794155468761352 -0.21900871868202818 0.11754266360730126 -0.0111831329376938 0.27805115447818896 -0.3753585304701191 -0.0023260058001578817 -0.06896453811030297 -0.06474631079706085 -0.0701593930202637 -0.2568704513655418 -0.0783371560817006 -0.18679043783353194 -0.15445757187488598 0.2862010644817148 -0.550903947999301 0.21770002652732798 -0.16012039257742008 0.11949341440756443 0.0010000305352089306 0.033363663126870634 0.08922162870915606 -0.10869591460565922 0.13362457223011767 -0.046449482216223505 -0.001556596548315498 0.04604556696060292 -0.12874518478117358 0.0638465753472251 -0.12777727736948985 0.015309480128966303 0.04759048630261134 -0.005329798018006613 -0.13162945822329092 0.04258280666039859 -0.12754603878777102 0.13164485360995146 0.00021615669604452406 -0.038965622034685385 0.07555411329936633 -0.08073169331200226 0.18183938557073592 0.09508266456200055 0.03302319206238859 0.152335804821454 0.010470281969477576 -0.05539618384636121 0.0036150679885941037 -0.028796134605658316 -0.10057755263923164 0.008285933087180172 0.2078110037594904 0.04036142345187168 0.03211872385892625 -0.10218451157950208 -0.10035739829316379 -0.020574778186266122 -0.009204902155599534 -0.06063477870937428 -0.03563950348214704 -0.04495373484914068 -0.008037338909501795 -0.05988764225407454 0.09770478461084402 -0.0024060053834130007 -0.06361735826316343 -0.16146822975482525 -0.057638408155527565 0.2507367168053276 0.014553637212806616 0.12204087222548259 0.04362776641097016 -0.09052284706207057 -0.22641743809244272 -0.14329658756817726 0.06230403888088961 -0.11564547638270532 -0.04147798435912685 -0.01897942557152897 -0.0008224047396062154 0.13345562504417596 0.03734276372948563 -0.19166020197997208 -0.06598327438403617 0.16220385775779717 0.008335910022570524 0.0005863223522863141 -0.08207581822536382 -0.05461625704696512 0.19939985073018995 -0.1011606755591092 -0.14541621219474685 0.03281340329798107 0.1138832545525488 -0.033818992488078216 0.11311924758610428 0.08540443862302277 -0.06758163380736924 0.12008755444352377 -0.09144023019569264 -0.15781463684840366 0.002662023677794683 0.04916558604239231 0.04952970736638285 -0.06474132719681118 0.11081811116077216 -0.058496437770506594 -0.08459721245151247 0.027835314837441744 0.16645198598176217 0.08405214313635134 -0.0721711570873128 -0.07108446855600965 0.12368118554330755 0.24979793650954957 -0.04912569351736891 0.012599110608855978 0.025054426532888904 0.025775173204066908 0.11906442110272246 -0.07446267788134991 -0.008783874309809757 -0.012704967351635206 -0.08986579111311437 0.047059383260728775 0.20698623850224082 -0.1393293475883937 0.002941163982508617 -0.02349898019407541 -0.04052126943962551 -0.02176625446447578 0.02326788379613496 -0.06386134741253897 0.07848364491242892 0.03547947343360592 -0.02748453357441043 -0.06949520923384837 0.03487591952587389 0.1637885306947489 -0.12110529114601468 0.06823465212361529 -0.025425705799357032 0.1429346279571212 -0.12440887217034782 -0.0659041541944009 0.02781350047588164 -0.003782880308888722 0.14015487399399507 -0.02921099971999111 0.07657552909311048 0.1504347123916015 -0.13274994939289608 -0.12212077771959175 -0.07961512752280099 -0.35328636556369475 -0.37969970845919987 0.2710410556722532 -0.22565433603496557 0.014163348655134307 -0.017167604242529885 -0.19592726470505123 0.1621278980775645 -0.3000557329947795 -0.1261085699707936 0.017647543592398007 0.15078094417565807 0.016635742277195116 0.10329388709594861 0.10921466693469634 0.3074338970397205 -0.3726131177645409 -0.1076894337686382 -0.08895668591854046 0.4029260877645131 -0.07785327842811757 -0.060277645793382274 0.21282354898066908 0.03515488490224403 -0.14842683526595626 0.12773124096993566 0.1805805903777121 0.19784187820251928 0.08400232302928616 -0.07147658886393483 0.01860877594862652 -0.04789472325197887 0.045967388721493196 0.022520149097472082 0.022851553896186087 -0.0855445204727836 -0.03647284282618248 0.022746551592240007 0.2143628093102116 -0.20558232775302346 -0.024044054819631695 0.20200285079679253 -0.03796608442482794 -0.3534055105238439 0.1855251203736564 -0.14908378486335816 0.1339820011785451 0.17103840607371473 -0.0029367381292437038 -0.08306328660348203 -0.12926409712911094 -0.24010297535162056 -0.08558255288729957 -0.20669551313833964 0.06032322870670355 0.11120845191489406 -0.216976665414923 -0.028387662801171692 -0.0047739813979875995 -0.30326501797545324 -0.15711307280902403 0.17728035478926074 0.19647030199623086 0.03792932527392625 -0.08643779162904862 0.26382783847907443 0.07179043369488815 -0.028675661294353567 -0.17601892197285748 -0.179078837044738 -0.10184998670614451 -0.18215076971791858 0.25325175547291073 -0.08165809982637627 -0.1545528333507274 0.181166257964023 -0.08044892180158776 -0.2070118730985725 -0.2441362958237408 -0.08313015912666617 0.36452660085396205 0.32109954153786974 -0.2483643306164656 -0.0952877201005116 -0.06562392340136833 -0.09985178420885145 0.006015826194056366 0.037922463350302665 -0.20751269103744738 -0.02814233760052887 -0.1282315682284151 -0.025201537034543135 -0.04462341471690009 -0.11552963710832521 0.007269248548328677 -0.09059710700092966 0.309038930785521 -0.15673058081578134 -0.18232581851142282 -0.009412476245498718 0.1114714761686712 -0.15969459525693594 -0.10271802290034766 -0.03752778741629781 0.037995081575209685 0.012832966283139537 -0.17661786108379748 0.32728868403492745 0.03054703113542538 -0.06734921796955486 -0.016827703732418268 -0.154561862263612 0.09175867350796732 0.06681476434202155 -0.014363525880631885 -0.018649816510930006 -0.004803061905310699 0.17542547126545155 0.03337884114381841 0.007486621020667093 0.06752206018919345 -0.008570555554004376 0.02902115267212598 -0.00137175900094348 -0.03761841310192539 0.018148760944710688 -0.03288689431816609 0.03244961957892597 0.3471951338703398 -0.1202196436640185 0.05195880853126018 0.437053110331166 0.01121555724430243 0.2377680042676686 0.12948045172252373 -0.09160451797288527 0.15802545787337513 -0.055402782653681315 -0.001049784106587701 0.10254322013524592 -0.16222561574616745 0.04192689769653131 -0.024072270306437583 -0.07762828590083308 0.05010926209155143 0.07105206266076773 -0.12546713969035872 -0.07157580976151175 -0.1606989817323275 -0.15333999360142717 -0.022780691107655987 0.12060506380093397 0.08942580593170746 -0.09754869002489731 -0.0005221078328503467 0.16885142819779933 -0.0968689437389648 0.06326868754392685 0.0935060965051939 -0.02490275652824541 0.0956695697715755 0.1371794046017092 -0.015096681241634108 0.09095394649735022 0.1068413134967279 0.006273299214792647 -0.048172796874167194 0.04263880845608094 -0.08918097099819089 0.10431238931714724 -0.06892286504593023 0.159757791455579 0.19018439167949844 0.2853980396382268 0.01154100456912683 0.010223338770974815 0.1139657999769128 0.15246983121818158 0.07360068119840278 0.0746083432413357 0.026711964380866808 0.035611077100329874 -0.12438699353526782 0.04685095290302828 0.14314776459106152 0.08448716666298157 -0.06056000039341314 0.31471597843223076 0.09148146587767576 0.008441737012081577 0.13812318338486104 -0.073591976621043 -0.10156731414060192 -0.16898803055240383 0.06754922922763384 -0.35646467608724147 -0.22349119000492948 0.3333055882955317 -0.12456280017292823 0.41800091377720827 0.3073782362354114 0.2000563842836058 -0.007581538938511136 -0.26739778505834266 -0.0951823468935434 0.0231402119084896 -0.02179317015540013 0.25919707524105073 -0.10923562239493265 -0.19980648291949288 -0.13975668500321387 0.19027635656411623 -0.10988163362697333 0.1004134796177001 0.061515478304886906 0.02684794753559723 -0.17841143283654012 -0.005207800509842398 0.07275864212933457 0.19190067423186263 0.037279844771906566 -0.057624241393235326 0.22073210057457204 -0.20155164520478253 -0.002231743622544587 -0.06726113076680174 0.05231097868047973 -0.11953837730695968 0.004109220313849586 0.09218641199452843 -0.0927073869652507 0.05037590443630775 -0.16999918708999903 0.10780325188184649 -0.2469007540455152 -0.1744971226006263 0.04273421272332633 0.047593467073591494 0.05161202612500057 -0.0933658354686731 0.03368411868486228 -0.20569617928676417 -0.03722778718416173 -0.10346267121829889 0.04570039637241027 0.11435545809424719 0.011058233660964551 -0.17719337677413607 0.01823848596683592 -0.04156041425148486 0.18779807573544757 0.0827236974235057 0.07629131389453166 0.07017278192930466 0.12502543927847737 -0.171815795493908 0.02189093360774165 0.01623964548286329 0.04002479200240526 -0.07038182338153907 0.16422644915020693 -0.15405606646656467 -0.182500229821901 0.05554101125517969 -0.13725431303292346 0.05311923534768355 -0.05478269756885369 0.09831526856365469 0.17181170887748085 -0.2328910981794483 -0.24613675019609257 -0.29971551577653077 0.08870459879597548 0.06814351862041927 0.14313571597545804 -0.15285441192987678 -0.03199475611673677 0.25176801445990465 0.020336899177509832 -0.24328077273164495 0.056205084816716835 0.12513231683776313 0.09376264250866945 -0.007829529385450536 -0.26818248305287923 0.08544389056534779 -0.22525278533227724 -0.14242366613991683 0.009014795884470673 0.007669720051543647 -0.12660454145346525 -0.20259725571272003 0.23699029977604533 0.17476263543194745 -0.3104027719932054 0.018333544032082254 0.02150735173598595 0.11572254081555301 0.1312104093465186 -0.21399639035232923 0.03761662162880684 -0.0062330496120023655 -0.21377049691816888 -0.07278014414168278 -0.017613664696149344 -0.09005448997671131 0.008824905162520451 0.17667324991213554 0.22996215284174698 -0.0832659643960369 0.013653424798921546 -0.1824222131449922 -0.1721928120335028 -0.044967870364865256 -0.034559998133404345 0.3061561855966477 0.19784412748536423 -0.09411504291556733 -0.1278371127852172 -0.10796039328055673 0.09762081882256618 -0.04651609727288301 -0.036512011880668695 -0.007262342126840553 -0.08820204453326665 -0.13072041612728566 -0.10447756105727678 0.03158305879827555 -0.07107761971838422 0.00849386102697959 0.2722204105688288 0.049305817136940176 -0.01981879162856222 0.06255063464616274 0.3726252114533861 0.16861263443255203 0.15548419335001717 -0.054796616562371565 0.01691554646348983 0.11594555186991781 0.10005238706291392 -0.036693556467909526 -0.006118960893790749 -0.06580132421106923 -0.10948780575776941 -0.027197478508504166 0.06733041972349861 0.060233283684804656 -0.14239175704767235 -0.1445623957787727 -0.13629464003088976 0.11443628661235421 0.058064590911533875 -0.13500179056326148 0.15229663983583167 -0.05175032912974015 0.18590105974448567 0.05776861050305945 0.1257313944559808 -0.05746237151628856 0.07307104675570703 0.01613041754355432 -0.16947771313578222 0.06079821467511768 -0.09275625419157241 0.10270313477281263 0.22523712515513367 -0.0753075527463751 -0.19178181570006791 0.16269317969398725 -0.11372284117131147 0.14929659710159418 -0.08360714362444227 0.20058198578971417 0.15074614408416023 -0.1430809156130401 0.005112084163564622 -0.0023369830577941626 0.016077483273571967 0.07896686418928515 0.10832988101356313 -0.09385641179127126 0.15910086100641277 0.06555530753568888 -0.021843016369682923 0.09038500194101935 0.07442073651348602 0.06012513581992016 -0.14568081214588247 0.05548570897666228 -0.1149712793624831 0.055297532968847964 -0.0626584880106505 -0.031685912914251366 -0.04410316106856295 -0.01972351052656161 -0.07499027327033027 -0.021386801535668395 -0.051832937736796 -0.03528549712575061 0.031020122929431227 -0.14217465757550002 -0.047133411475658846 0.16400314939658328 0.08913739132256793 0.09937729095941775 0.23122056306513256 0.08818363569474662 -0.07950041246445859 0.03779953496829824 -0.11997378267814252 0.028025736365809222 -0.018917845702967097 0.06625120636632334 0.07065509651628395 0.15898751429706362 0.08514635324097192 0.010076801247701151 0.0065004876531151515 0.10519223578191321 -0.054825219274763165 -0.12115115035361129 -0.03456940332778356 0.059996790951737565 -0.30045158900158925 0.02286263678342451 -0.10602142672266801 0.08924224075765544 -0.010286708403838126 0.05839777791325954 -0.019822989738113122 -0.05782779913145326 -0.02662852913112889 -0.12801194025469495 -0.22831729282825627 0.12199926512047612 -0.11149946200724861 0.03687198691455493 -0.06267354489186257 0.045745546774679895 0.12973981965863615 -0.13508530778016717 0.3560736546432346 -0.19818096512720668 0.16942661995185673 -0.29530185610631954 0.06583388783269305 0.16125319975591296 -0.1424342069049059 -0.13547736359855253 0.35565618948865524 0.33086008244174625 -0.1608411183221201 0.08548104783852235 -0.3104472563436622 -0.07974618497792413 0.22137438553987315 0.22247835220213083 0.08593959824486483 -0.10608654332964351 -0.029884692324414545 0.17326379902432248 -0.09780378971855815 0.31850562593363185 -0.013615117642129443 0.14087149591641945 -0.47782709597482176 -0.19453736726396528 -0.2014671197395196 -0.1315283587996505 0.12389016389740662 0.037801712232498924 -0.5325464025660855 -0.07759979377812735 0.015153319415119762 0.09378691639377469 0.07134648494411282 0.1345435273424748 -0.0696822939332551 -0.10684725094585137 -0.03747495251569591 0.13761630323229787 0.23012401311816194 -0.14900573250238364 0.04339059185515138 0.05090894521017045 -0.0028830852224766435 -0.0813041068591804 0.12510204284426027 -0.016622778886429792 -0.0361451784866094 -0.34464020505993787 0.015476710659695825 0.17869632460496146 0.22738355766852109 0.14248500800516636 0.24310487006140324 0.02595936908263774 -0.004225788652970535 -0.1228628679517125 -0.3637109679715688 -0.2963049495630128 0.20509715075474264 0.1821019511118166 -0.19221395318398346 -0.12875322797706445 -0.05715066667081209 0.0004207144997584648 -0.013661064358339584 0.07237909053967188 0.012594011573781585 -0.04512271671899269 -0.14451462589012382 0.12482477707826335 -0.25643284056967797 -0.2648743995457723 0.3050119439839703 -0.24022868360998223 -0.09825129400196721 -0.10320483576992258 0.17764363488478482 -0.1643614347163533 -0.12395732538777422 -0.552099487346479 0.14132157003530427 0.03735839471520631 0.18865368442053404 -0.044087393818822825 0.13065958517875187 -0.2583720640956556 0.21480217722306805 -0.24576284605302295 -0.15395732288058409 0.07912135928296636 0.07499344868945511 -0.31539847648678837 -0.1974342296668871 0.04005531893134734 0.17074036974154647 -0.3125043257192314 -0.22378926866131804 -0.20998218314158845 -0.13410038294872245 0.44049423190820575 0.15319120465800562 0.025603849087387106 -0.12764190854037838 -0.09329281692444263 0.3272604840711632 0.015469165052658452 0.13138906101964054 0.12654835257544905 0.39833139320933203 -0.12607028468923293 0.07859448343618684 -0.11243772860663181 0.11030958466644157 -0.1625785462050332 0.04661189069539165 -0.2066733341405944 -0.10367370927660623 -0.07223752791536972 -0.08364473760559396 -0.23638404630591767 0.06992999826715773 0.1211618655462583 -0.18499330067291134 0.019242881048575557 -0.3480696919642814 0.03575850584090907 0.13851201052303175 -0.3117720122932468 0.01630154295142195 -0.3748013457643892 0.036182848127899146 -0.10867340228497273 -0.06891381626396494 -0.3278438944635684 0.021137407911730667 -0.15456927729565464 -0.17344419203764738 -0.0472262352985624 0.14166702347505605 0.356658305345604 -0.15417226177970378 0.008828087140308456 0.187455486909655 0.23450209291853666 0.20101910690534394 0.144176118254728 -0.48754656103275684 0.1550080241411519 -0.02232658222610291 0.04261924092996508 -0.18423438180649934 -0.4954633787289753 -0.32248840174819 -0.3269371620626764 0.31708119700271975 0.19833414771465988 -0.06005649464715986 0.3440270903211108 0.1100912081467479 0.21422885955909565 -0.013314458168248665 -0.1586540613705473 0.4662641485591173 -0.08372163883388377 -0.2828643492732906 0.031007762346801356 -0.110970756049873 0.10232264557678937 -0.1502585759354006 0.03294584670561308 0.13716447104585253 -0.13260604941629076 0.5213920516295865 -0.22096028781105706 0.04627905417579391 -0.10729175215035966 -0.08210350067223889 -0.09293030524349424 0.17017564649234068 -0.06769375207544959 -0.01166923501764377 -0.2562542532722712 0.21632581498349826 -0.11726014894942832 -0.052831235698613456 -0.13044236998742367 0.11902590471970104 0.06116208743335992 0.08237040678702434 0.14589546868567277
0.054932804731059014 0.1200119131227017 0.11608034675410406 -0.12936487249645928 -0.15075366249780417 -0.08694590916500562 0.01382409825078438 0.12508450856765568 -0.000168816129283141 -0.07933767293145493 0.01439175574953737 0.05570642038022375 -0.11252584325311248 0.03147759135370999 0.1273778419375204 0.05671029422929481 -0.02643616401320976 -0.024782275070054132 -0.04310827280658261 0.05866878904176076 0.08893012758184039 0.05063038172000444 0.14506224987178512 -0.02186631024805603 -0.07917519919681705 0.08453759092565227 0.01973527825871994 -0.0653223978414809 0.031374996430905785 -0.0200510144869038 0.04390501339969239 -0.061472439535914414 0.02251945425489411 -0.11127200339656913 0.07270223719460328 0.04115624833466881 -0.0010427744877029715 -0.06627137017475274 0.13987367747396343 0.05823886695231457 -0.10599781295821885 0.00037392096734640906 -0.0996981457893388 -0.006288949940851233 0.0731416925728594 0.003504234643600678 0.0008101940181649629 -0.03494778515638849 -0.005591995270443044 -0.01597911652610191 0.1479047411097581 -0.050938353232023496 -0.048135775839168726 0.08252013861224372 -0.1322627834318249 0.021428014463671766 -0.0562596395347706 0.14798440074370345 -0.07533960711097003 0.010069106781996887 0.06067781021529025 0.06971619298020929 0.03173923175076673 0.07150688857229266
